module.exports.funcion=function anonymous(input
) {
  var net = {"layers":[{"0":{},"1":{},"2":{},"3":{},"4":{},"5":{},"6":{},"7":{},"8":{},"9":{},"10":{},"11":{},"12":{},"13":{},"14":{},"15":{},"16":{},"17":{},"18":{},"19":{},"20":{},"21":{},"22":{},"23":{},"24":{},"25":{}},{"0":{"bias":0.3418425964631628,"weights":{"0":-10.202253144419773,"1":0.6935173141666624,"2":-0.44164293860477927,"3":3.6912060585188264,"4":0.13072048136194897,"5":0.05098109070353531,"6":-0.22403475621143812,"7":-1.830095777256295,"8":-4.748217087296303,"9":1.0309742385654304,"10":2.6900643845633923,"11":1.9784366423733053,"12":8.785143768215182,"13":2.6912126707339272,"14":-5.55797341457045,"15":1.0567239187641344,"16":0.8822320569620282,"17":-2.5286700684686223,"18":1.1059972180921358,"19":-1.8868388997657504,"20":-1.855113965863923,"21":3.2038038141820424,"22":-3.282702124867334,"23":0.7140869745399597,"24":-0.04346477613775249,"25":-0.054539355454621796}},"1":{"bias":4.655577609510777,"weights":{"0":-6.244894982082576,"1":4.506008367264048,"2":0.5470250870447334,"3":8.202065839231137,"4":-5.263358915380271,"5":0.01808512098539012,"6":0.02571779786452463,"7":-5.20050244801765,"8":0.952417132898152,"9":1.9079699318012449,"10":-0.3931660063491332,"11":1.8507860963426033,"12":-9.080130930591036,"13":6.433205636535467,"14":-1.5785208332690872,"15":0.5722278970039815,"16":0.2432960995593377,"17":-0.005735307528761407,"18":4.176354409500996,"19":-0.2612461133172665,"20":0.04404476412188939,"21":-3.93146972060642,"22":-0.6230362739707247,"23":-2.038575509097466,"24":-0.08470452041698855,"25":-0.04338969748670868}},"2":{"bias":1.0243723704374144,"weights":{"0":1.7648444951510363,"1":-4.038273060025924,"2":0.3010215213400422,"3":-11.688182858996706,"4":-5.529764705009587,"5":-7.138549614530368,"6":2.480134336979628,"7":3.2407817576163613,"8":-1.169337914645938,"9":13.452721558436192,"10":-3.528399945335594,"11":-5.501761672998103,"12":8.116864306190518,"13":5.869884313030884,"14":1.5051399704818729,"15":-2.9593815080944483,"16":-0.654013282971992,"17":-10.369200267558384,"18":-11.154868451707216,"19":-0.7599823860315571,"20":5.477720662351984,"21":-8.153769581025443,"22":-9.78792388243643,"23":-1.304191681333659,"24":-0.19486434815760784,"25":0.09384800321747172}},"3":{"bias":-1.389486011648936,"weights":{"0":0.7867112969722612,"1":1.3970759818162082,"2":-2.9990419895650136,"3":-2.4188887342077843,"4":-9.131407375077671,"5":0.19664914620492172,"6":-1.0644020656596742,"7":-5.171171733330671,"8":-1.2731323900600755,"9":3.7561494864126392,"10":0.11419328238018617,"11":1.7038762713439064,"12":3.0552923335269746,"13":5.972734460684818,"14":-6.572154126219347,"15":2.464771420639368,"16":2.7162907406366457,"17":-2.3069664958273406,"18":5.461883884170739,"19":1.067268666991961,"20":-4.985594807749873,"21":5.040663573757073,"22":-1.466692750603347,"23":2.1337122489152502,"24":-0.19381087373461503,"25":0.10562256184877795}},"4":{"bias":1.6702011055293535,"weights":{"0":-2.7386777157688047,"1":-4.872376176604068,"2":-0.09912985031857248,"3":-2.4968079399235976,"4":-0.9889100637484126,"5":3.5582576518074065,"6":-7.179256678049203,"7":1.3786919112151448,"8":6.6163519840864895,"9":-1.216512646548083,"10":4.042396889700404,"11":0.9159381448378117,"12":0.4401332051819317,"13":-9.170722345139492,"14":-2.3565655995306396,"15":8.234394886946516,"16":3.791111740779337,"17":-0.3214602856162254,"18":3.233135882351348,"19":8.014280389788613,"20":0.7908028656111578,"21":-5.282380625765029,"22":-2.5812161295565397,"23":6.556327257226843,"24":0.03963023637523972,"25":-0.056383885225493494}},"5":{"bias":4.229604249766571,"weights":{"0":3.3222429963796367,"1":-2.884012203160241,"2":-2.5041204446976337,"3":-0.2885467709791672,"4":-4.196997840991346,"5":1.5605132396659358,"6":-1.4889652547604022,"7":-0.8481960076820255,"8":-3.7882780335297053,"9":-0.6660974621668047,"10":-3.18621608866244,"11":0.47241484207688555,"12":-0.20370195156687504,"13":-0.7596501554428118,"14":1.8365751507359585,"15":-0.5020284289710328,"16":-1.8028416956879987,"17":-15.895318553503193,"18":-1.596569334125348,"19":1.1908615891746104,"20":2.0186278457623827,"21":-4.518056567989578,"22":6.151908185291131,"23":2.5089102537423957,"24":-0.13490266550961244,"25":0.0462080036367618}},"6":{"bias":1.745694899090307,"weights":{"0":-6.936412901127063,"1":2.163325939849451,"2":-1.2579319382067637,"3":-1.0695984659903313,"4":0.44604766883769037,"5":1.7858088241102719,"6":1.6636787404025026,"7":-1.8132871250294125,"8":0.057185157567896445,"9":-1.7250472513314627,"10":-2.0523914309048363,"11":-0.5494572617029817,"12":0.12438423823698119,"13":4.225794385424311,"14":-5.899890968389021,"15":-3.6034288832971524,"16":-0.24762859456976904,"17":2.943965977563924,"18":0.08450170938115319,"19":0.13424438863135166,"20":-8.734537992182322,"21":1.727924630540159,"22":1.9480835870645534,"23":0.39496462816041106,"24":-0.058180941457390944,"25":-0.05937976149534448}},"7":{"bias":-2.881050072527074,"weights":{"0":1.8913845613095057,"1":4.327714473858544,"2":2.078617579420091,"3":1.9997713395091554,"4":-1.7133339780158106,"5":5.197260452362705,"6":-8.643839530701442,"7":-4.409369651466032,"8":1.327989801821855,"9":-4.613428999018075,"10":-1.6675165049944927,"11":-1.7796643627050468,"12":6.694308775254645,"13":-2.9942761293006654,"14":-1.3326868077909333,"15":0.4461013096072257,"16":-1.8660726301521868,"17":2.452622137754241,"18":-3.112495555794581,"19":0.1404254484398811,"20":-2.8701276382142034,"21":3.3865363723119954,"22":3.3281592241111717,"23":3.226652262474458,"24":0.08015797356801417,"25":-0.03895280263887033}},"8":{"bias":1.2177813592129614,"weights":{"0":2.289796285360788,"1":-1.1352524188899562,"2":-4.57129396127705,"3":4.482974346151834,"4":-4.281185659041689,"5":3.058375685944942,"6":-1.6511711736413677,"7":0.9559518727293791,"8":8.926723843921192,"9":-2.0064798952792597,"10":-11.612235495473389,"11":-6.733637307940892,"12":1.235314070422253,"13":0.14555051979319472,"14":-7.611213665487564,"15":8.37145830365778,"16":6.610033408299171,"17":-10.797073479545782,"18":-4.533365900801571,"19":-2.325184772022904,"20":4.085367144161408,"21":-3.285500465702643,"22":-1.3638719141635227,"23":3.7224129982335605,"24":-0.21735115170836855,"25":5.582583495938221}},"9":{"bias":11.59576247259455,"weights":{"0":-0.7888344903609492,"1":-4.209942303975539,"2":-0.5273078956832487,"3":3.8822016260327437,"4":-1.1179113025629128,"5":-3.6563038415788953,"6":-0.21086457689454288,"7":-8.70565287313827,"8":-1.297765771975104,"9":3.8568508409892046,"10":-6.5168622925814885,"11":7.339370755899615,"12":-2.7631401668135718,"13":-1.1373808943522072,"14":-2.664425741051097,"15":-1.1167639172550694,"16":-5.750198695103381,"17":4.389533316004208,"18":13.780611945246656,"19":3.2613796258687064,"20":-3.7085220881999215,"21":2.2527415195654066,"22":4.7448069248530205,"23":-4.68972358662682,"24":-0.005580366523002582,"25":0.6890877785888785}},"10":{"bias":9.107504607297834,"weights":{"0":-4.671592237701345,"1":-3.4154374923913444,"2":-3.3452082986244656,"3":3.8591258590330084,"4":-4.422105010031184,"5":1.991277304899498,"6":-1.7934800971323825,"7":2.1505681629545377,"8":6.220518583298001,"9":-3.765153636446434,"10":-5.193435736156724,"11":5.111111401869989,"12":-1.4749232564699777,"13":6.392750780926681,"14":-8.000159311008856,"15":5.229902059244221,"16":1.9964676759333662,"17":9.498949686880138,"18":0.05875972472582544,"19":1.9351621349749502,"20":-0.19636071063175609,"21":-8.607784147756824,"22":-9.168540547655862,"23":-2.4819670653072854,"24":0.36585638855212654,"25":-0.5789863208943352}},"11":{"bias":-2.2117861826118763,"weights":{"0":1.0321321335665279,"1":-4.115049339650801,"2":-3.576729087842313,"3":3.1749379973980707,"4":2.3865246520147387,"5":-1.8134560065656047,"6":2.559468210889496,"7":-8.068818877384482,"8":-8.770775664334744,"9":-1.1470630762371652,"10":1.9408300779000907,"11":-0.8695658665945922,"12":6.254019437248692,"13":-2.866019992913792,"14":5.55742788822716,"15":-0.6423203384007591,"16":9.486795649946215,"17":-7.098445086249687,"18":-1.0438275170867375,"19":1.4461121571251805,"20":3.199262018670759,"21":7.332314108753187,"22":-1.594889858180768,"23":0.6762870397591819,"24":0.07089788276016361,"25":-0.08527056181703162}},"12":{"bias":5.725802973201377,"weights":{"0":-1.1645983558044684,"1":-1.6658581448434684,"2":1.5248206981337071,"3":5.472150596409461,"4":2.1667868356414792,"5":5.712102380045887,"6":1.0929943822492525,"7":-1.0066328451982025,"8":-2.679548763587421,"9":-10.650217813137415,"10":2.166512538793894,"11":-0.4236645880351932,"12":-11.770866385112338,"13":2.4402926366478446,"14":-0.6972588423824113,"15":3.5299353424148694,"16":-1.351105895657524,"17":4.403483239801815,"18":5.808707243366881,"19":-4.456499545747706,"20":-0.166241467924658,"21":-5.172427232894535,"22":2.4930346388246747,"23":-2.034385363081937,"24":-0.9672405837823116,"25":2.5357238209605595}}},{"0":{"bias":9.256107427948983,"weights":{"0":-13.88657836867451,"1":17.217527767974143,"2":-11.267386571642735,"3":9.773174227077488,"4":11.38619430958781,"5":17.34038529180688,"6":16.76347339312563,"7":-14.927708205158915,"8":-12.849578475065762,"9":-15.84249994871025,"10":10.78273824814894,"11":11.465394396236068,"12":-15.136921686482722}},"1":{"bias":-9.256105162948167,"weights":{"0":13.886575270058211,"1":-17.217523944016936,"2":11.26738430908644,"3":-9.773172250200838,"4":-11.386191771063604,"5":-17.340381686797258,"6":-16.763469319162,"7":14.927704901189502,"8":12.849575565614234,"9":15.842496289948707,"10":-10.782736037073171,"11":-11.465392066138405,"12":15.13691829591745}}}],"outputLookup":false,"inputLookup":false};

  for (var i = 1; i < net.layers.length; i++) {
    var layer = net.layers[i];
    var output = {};
    
    for (var id in layer) {
      var node = layer[id];
      var sum = node.bias;
      
      for (var iid in node.weights) {
        sum += node.weights[iid] * input[iid];
      }
      output[id] = (1 / (1 + Math.exp(-sum)));
    }
    input = output;
  }
  return output;
}