module.exports.funcion=function anonymous(input
) {
  var net = {"layers":[{"0":{},"1":{},"2":{},"3":{},"4":{},"5":{},"6":{},"7":{},"8":{},"9":{},"10":{},"11":{},"12":{},"13":{},"14":{},"15":{},"16":{},"17":{},"18":{},"19":{},"20":{},"21":{},"22":{},"23":{},"24":{},"25":{},"26":{},"27":{},"28":{},"29":{},"30":{},"31":{},"32":{},"33":{},"34":{},"35":{},"36":{},"37":{},"38":{},"39":{},"40":{},"41":{},"42":{},"43":{},"44":{},"45":{},"46":{},"47":{},"48":{},"49":{},"50":{},"51":{},"52":{},"53":{},"54":{},"55":{},"56":{},"57":{},"58":{},"59":{},"60":{},"61":{},"62":{},"63":{},"64":{},"65":{},"66":{},"67":{},"68":{},"69":{},"70":{},"71":{},"72":{},"73":{},"74":{},"75":{},"76":{},"77":{},"78":{},"79":{},"80":{},"81":{},"82":{},"83":{},"84":{},"85":{},"86":{},"87":{},"88":{},"89":{},"90":{},"91":{},"92":{},"93":{},"94":{},"95":{},"96":{},"97":{},"98":{},"99":{},"100":{},"101":{},"102":{},"103":{},"104":{},"105":{},"106":{},"107":{},"108":{},"109":{},"110":{},"111":{},"112":{},"113":{},"114":{},"115":{},"116":{},"117":{},"118":{},"119":{},"120":{},"121":{},"122":{},"123":{},"124":{},"125":{},"126":{},"127":{},"128":{},"129":{},"130":{},"131":{},"132":{},"133":{},"134":{},"135":{},"136":{},"137":{},"138":{},"139":{},"140":{},"141":{},"142":{},"143":{},"144":{},"145":{},"146":{},"147":{},"148":{},"149":{},"150":{},"151":{},"152":{},"153":{},"154":{},"155":{},"156":{},"157":{},"158":{},"159":{},"160":{},"161":{},"162":{},"163":{},"164":{},"165":{},"166":{},"167":{},"168":{},"169":{},"170":{},"171":{},"172":{},"173":{},"174":{},"175":{},"176":{},"177":{},"178":{},"179":{},"180":{},"181":{},"182":{},"183":{},"184":{},"185":{},"186":{},"187":{},"188":{},"189":{},"190":{},"191":{},"192":{},"193":{},"194":{},"195":{},"196":{},"197":{},"198":{},"199":{},"200":{},"201":{},"202":{},"203":{},"204":{},"205":{},"206":{},"207":{},"208":{},"209":{},"210":{},"211":{},"212":{},"213":{},"214":{},"215":{},"216":{},"217":{},"218":{},"219":{},"220":{},"221":{},"222":{},"223":{},"224":{},"225":{},"226":{},"227":{},"228":{},"229":{},"230":{},"231":{},"232":{},"233":{},"234":{},"235":{},"236":{},"237":{},"238":{},"239":{},"240":{},"241":{},"242":{},"243":{},"244":{},"245":{},"246":{},"247":{},"248":{},"249":{},"250":{},"251":{},"252":{},"253":{},"254":{},"255":{},"256":{},"257":{},"258":{},"259":{},"260":{},"261":{},"262":{},"263":{},"264":{},"265":{},"266":{},"267":{},"268":{},"269":{},"270":{},"271":{},"272":{},"273":{},"274":{},"275":{},"276":{},"277":{},"278":{},"279":{},"280":{},"281":{},"282":{},"283":{},"284":{},"285":{},"286":{},"287":{},"288":{},"289":{},"290":{},"291":{},"292":{},"293":{},"294":{},"295":{},"296":{},"297":{},"298":{},"299":{},"300":{},"301":{},"302":{},"303":{},"304":{},"305":{},"306":{},"307":{},"308":{}},{"0":{"bias":0.00847251037425162,"weights":{"0":-0.08813610202135592,"1":-0.17938450635445416,"2":-0.01349403616837661,"3":0.2094939300950468,"4":0.05370341680293643,"5":0.1213334035903587,"6":-0.14223120586554033,"7":-0.0029413954447907844,"8":0.020539394311767455,"9":0.20057533537764033,"10":0.15079592653160342,"11":0.2256463403274661,"12":-0.03854817133585486,"13":0.20968445409073477,"14":0.10253817801140731,"15":-0.15149698486371313,"16":-0.00538646627919316,"17":-0.14581026302368794,"18":0.040690160723388914,"19":0.07602263120348778,"20":0.21413664215296874,"21":-0.012996419955645273,"22":-0.0003207407808102856,"23":0.1726424043353412,"24":0.004147455623707816,"25":-0.07734420691052317,"26":0.24520573720425165,"27":0.21077285620303013,"28":0.10663298107576384,"29":-0.04459912065933622,"30":-0.07164555715998144,"31":0.021396702125766952,"32":-0.0924696120195337,"33":-0.09396373527439274,"34":0.2067974810549046,"35":0.0852262312741867,"36":0.018167909014716693,"37":0.0716468971632407,"38":-0.009767926003950666,"39":0.16514069573731058,"40":-0.057522274119523924,"41":-0.14824580211315808,"42":-0.058446715590184106,"43":-0.1294007472849702,"44":-0.12371926545195559,"45":-0.045627271314029466,"46":0.16620515543533512,"47":-0.014296657793077495,"48":0.1205407703695983,"49":-0.04061095794289394,"50":-0.18984980447801622,"51":-0.06916293741520006,"52":-0.07494871226156032,"53":-0.015015126005864337,"54":-0.16790592795112694,"55":0.2526219764481021,"56":0.1395078094273226,"57":-0.0973143088695675,"58":-0.006385620502387805,"59":0.19538865930785007,"60":-0.10544218069153784,"61":-0.033066019118688054,"62":0.20801650045249512,"63":-0.15918750893290992,"64":-0.04882855536709925,"65":-0.18458513125857084,"66":0.14070247983489828,"67":-0.13859531381912457,"68":-0.18084448963649247,"69":-0.06455115956375465,"70":-0.024469908573468434,"71":-0.0464260027131824,"72":-0.0763374855711768,"73":0.0983891035775736,"74":0.019100919663940508,"75":0.10617892014652901,"76":-0.03031459702280518,"77":0.0010199480339996533,"78":-0.10424359838080868,"79":-0.06358562243243428,"80":-0.16526520465765773,"81":0.31744143122861507,"82":-0.06661920283821204,"83":0.08609418712113366,"84":-0.041615312089772545,"85":-0.042336940059338905,"86":0.23239007430457334,"87":0.15697271423997855,"88":0.15955431660945274,"89":-0.1340658601771509,"90":-0.14985426468195054,"91":-0.0870368825229793,"92":0.2264811612086312,"93":0.0973856300580413,"94":0.13749654152042667,"95":-0.008000726584648317,"96":-0.024864309199034155,"97":0.18621295792546616,"98":0.022939040374367402,"99":0.2371858650390551,"100":0.1389888871278771,"101":0.2147488743822576,"102":0.20344799397070504,"103":-0.10540127506797344,"104":-0.10764445133140012,"105":-0.023928449129668877,"106":0.18215406553911684,"107":0.14397152441365052,"108":0.21022092232087866,"109":0.05348585610682886,"110":0.02942063771137374,"111":0.09310577704917518,"112":0.35758411353694886,"113":-0.26584246274559764,"114":-0.2764739007400879,"115":0.191994098095337,"116":0.0800780806534981,"117":0.16690323799603315,"118":0.10472350217313925,"119":0.22274456951236832,"120":0.12425914112874054,"121":0.04617111699051404,"122":0.2852302666446921,"123":-0.23116016111027815,"124":0.22858333558128763,"125":-0.12181206848804978,"126":0.09688670136614247,"127":-0.24862960374154103,"128":0.25250632351273883,"129":-0.01016534273008106,"130":-0.09882675044683639,"131":-0.15453774623002262,"132":0.1864393512211309,"133":-0.0893522595784986,"134":0.018857733178187452,"135":0.12244086831468957,"136":0.08166479993161668,"137":0.06705790045228306,"138":0.22664161239741215,"139":0.19537210759153828,"140":0.23807582272171374,"141":-0.10208459098964007,"142":0.012977099392726732,"143":0.07827463216151453,"144":0.15556364030521708,"145":-0.14066886426951902,"146":0.2443839049235363,"147":0.13846324667778032,"148":-0.05359425354109416,"149":0.17925254462696305,"150":0.12242310759584686,"151":-0.22807734678915328,"152":0.22579282769904474,"153":0.10902219411417576,"154":-0.00621769162340162,"155":-0.04394533262961571,"156":0.19362154799892292,"157":0.23483615709417402,"158":-0.08357886945646908,"159":0.07593424949631569,"160":0.077487583570589,"161":-0.1782912127397059,"162":0.0355576168462288,"163":0.25605620410150703,"164":-0.13808003545695702,"165":-0.1126334667893783,"166":0.05842730490378772,"167":0.038460457067264364,"168":-0.13750203982533063,"169":-0.033792410833514946,"170":0.030825208302038054,"171":-0.004871664721315128,"172":-0.0854018820157105,"173":-0.034047521932160985,"174":-0.1850627327732518,"175":0.15734197469515357,"176":-0.03733626327426407,"177":-0.12188655388811163,"178":-0.16763987887117487,"179":0.16807388621204755,"180":0.01516002333680845,"181":0.09281076655200088,"182":-0.071051835049953,"183":0.10518948786735347,"184":0.11247770163366116,"185":0.03661949716673738,"186":0.1768014834567614,"187":0.012063683907307929,"188":0.020635750247378692,"189":0.017242841691097344,"190":-0.11640706174410259,"191":0.01578908372528096,"192":0.06749858478231185,"193":-0.09593538500174228,"194":0.07892457143312848,"195":0.15704476596828398,"196":0.08359123811815386,"197":0.11141182466323096,"198":-0.16200507749242382,"199":0.0748538032537644,"200":-0.17247835283226703,"201":-0.01622215052806901,"202":0.16416493912137178,"203":-0.26218880284233037,"204":0.14947924467806795,"205":0.1471559228059652,"206":-0.09863475668674797,"207":-0.04282720464944876,"208":0.01970182185539939,"209":-0.08215137691697273,"210":-0.11291853096743404,"211":-0.09839604482236189,"212":0.12720360091697228,"213":0.11140343052697041,"214":0.05995491319861673,"215":-0.05202542044296306,"216":0.23444399462723525,"217":0.13680804495701657,"218":-0.08279787752169841,"219":-0.14567272589533714,"220":-0.06132470634049857,"221":0.17338321741651574,"222":-0.18151629204963435,"223":-0.008892054766225533,"224":0.0021823690349885815,"225":-0.0017900394585170169,"226":-0.1940080804078984,"227":-0.3950176455693787,"228":0.07723794900404274,"229":0.015564726274514124,"230":0.08739451520582416,"231":-0.061260247686195,"232":-0.17863476140119625,"233":-0.023699412136269277,"234":0.13329893847815977,"235":0.05800103656297595,"236":-0.022978020028889077,"237":-0.08372232458401686,"238":-0.021942063170781533,"239":0.0447367984560571,"240":-0.20273428597785492,"241":-0.15830023755586037,"242":-0.1669878143013321,"243":-0.1761000744497668,"244":-0.3014339418026469,"245":0.03266369190537563,"246":-0.29108588420864495,"247":0.05906909890406644,"248":-0.031164093906432242,"249":-0.23481106482510916,"250":-0.06626461821061037,"251":-0.1595248569682429,"252":0.02036530415007024,"253":-0.034157262548982194,"254":-0.2622196706387193,"255":-0.21104165199953326,"256":0.15075317941462926,"257":0.030391159874136268,"258":-0.20459334969667456,"259":-0.06836136004788954,"260":-0.2655502552790749,"261":0.09885463341757447,"262":0.09661760457350342,"263":0.055812149181634955,"264":-0.05168130738185285,"265":-0.23792365900575205,"266":0.0973643707229249,"267":0.12018357913088264,"268":-0.14600666944819163,"269":-0.05136443531611589,"270":0.05959387585129037,"271":-0.14389007772133985,"272":0.06671432697947759,"273":0.06629531184881982,"274":-0.16091312988016057,"275":0.06797046826951736,"276":0.06715212179907085,"277":0.06567408338282721,"278":0.17609176233787582,"279":-0.06557829589680661,"280":0.16566345635518587,"281":0.07977150743473149,"282":-0.13905579381860841,"283":0.08193517341305971,"284":0.08875145090945935,"285":0.1286784788957787,"286":0.06237322378119544,"287":0.01813837343212057,"288":0.08252322040913866,"289":-0.0452407485805411,"290":-0.1053693115169921,"291":0.15404635791214547,"292":0.06388503575277146,"293":0.019898933220195154,"294":0.10712264427560225,"295":-0.030918788725538673,"296":-0.2004267971516644,"297":-0.1283017694692472,"298":-0.03773617586647287,"299":-0.19001487978663126,"300":0.02261790146666294,"301":0.058090893418462186,"302":-0.02570692091026676,"303":0.152143130798548,"304":0.05563977920731423,"305":-0.038786072223674764,"306":-0.16179848913308675,"307":-0.041898469628406966,"308":-0.05666712683729707}},"1":{"bias":0.07343172044315975,"weights":{"0":-0.0865760516438937,"1":0.07195128711490141,"2":0.15180255946207472,"3":-0.09216941746515944,"4":-0.16930633524910924,"5":0.09896498888490325,"6":-0.1026955234566494,"7":-0.10407804419943437,"8":0.11173572647869072,"9":-0.045450155442759085,"10":-0.09901902512819342,"11":-0.18887683354473886,"12":-0.039644479200267445,"13":0.013573500788390777,"14":-0.09986591474557704,"15":0.037242903930625106,"16":0.061972172879185466,"17":0.028792682299778057,"18":-0.17681347936988995,"19":0.06699651604280232,"20":-0.22992764224723433,"21":-0.10085364921698278,"22":-0.11435216139337817,"23":-0.0827871010159229,"24":0.08048911915681889,"25":-0.19277199469271936,"26":-0.08357611294050449,"27":-0.02342510832908368,"28":-0.1322919527753718,"29":-0.08110553285574029,"30":0.15167586692456145,"31":0.1365307708239427,"32":-0.20152143485300877,"33":-0.07384218429474831,"34":0.13231935929558,"35":-0.1849331151817742,"36":-0.1289075119147064,"37":-0.1285606981227854,"38":0.06490826635932107,"39":-0.17902610487580956,"40":0.1748564583492688,"41":0.07960850280219445,"42":0.03226630179253585,"43":-0.12276125375444848,"44":0.11323686434862873,"45":-0.011696912210693912,"46":0.0012924281344661418,"47":0.1281154258662233,"48":-0.0067115674024929885,"49":0.1216390545992426,"50":-0.09537264932146663,"51":-0.10202670953540646,"52":-0.09296143791082939,"53":0.14604669139294293,"54":0.11740063651603158,"55":-0.26865862796666035,"56":-0.09052168172518782,"57":-0.06525006571995147,"58":0.18280368151913687,"59":-0.07521261049800554,"60":-0.006282179885042127,"61":-0.01665228712120217,"62":-0.13277944303058464,"63":0.10202507930807969,"64":0.1859261809911775,"65":-0.12022417156932298,"66":-0.14984734603601382,"67":-0.07416238307652712,"68":0.1322159583661149,"69":-0.12836238250709853,"70":-0.16233376326866067,"71":0.14382519155513473,"72":0.1192966256672,"73":-0.06622337870365885,"74":-0.15369345390559516,"75":-0.1332449946602367,"76":-0.0005735855791065045,"77":0.007308877130479569,"78":-0.1035962001005114,"79":0.055595227946309424,"80":-0.027391944038471935,"81":-0.29828359887429784,"82":0.17007837750001117,"83":-0.25441412577899003,"84":0.04175469459354413,"85":-0.04573864236862383,"86":-0.0964791867637897,"87":0.0008376506873818159,"88":0.017200375378350473,"89":0.12585925665610675,"90":-0.09664213040305487,"91":0.06785153242022744,"92":-0.06632112609484492,"93":0.15522940368088747,"94":0.06281087493962814,"95":-0.04913722812517414,"96":-0.11911809097994244,"97":-0.1634142761513345,"98":-0.02041729066541242,"99":0.12875643634919418,"100":-0.16199801365016156,"101":0.11053879736586972,"102":-0.1873795484967547,"103":0.11248822727126997,"104":-0.1548193044141278,"105":-0.18714344032425365,"106":-0.07769350042073432,"107":0.05092199248367588,"108":0.017315629985807508,"109":-0.04872963407492171,"110":0.07416815469592063,"111":-0.22001787865941666,"112":-0.3836539044833244,"113":0.06623822533889417,"114":0.036747790239478155,"115":-0.1616884632468131,"116":-0.26848589957090563,"117":-0.017842022294086754,"118":0.09738294713890532,"119":-0.2299321639344365,"120":-0.15587582248667056,"121":-0.24238747482867445,"122":-0.09180595127785303,"123":0.1391169079899768,"124":-0.12271695285568487,"125":0.14551412736699357,"126":-0.10865113835128519,"127":0.08008431997716031,"128":-0.1593462635903331,"129":-0.14452204204071822,"130":-0.05089271458022267,"131":-0.008200492053128951,"132":-0.10336849675117477,"133":-0.16494132682483056,"134":0.01686386692061996,"135":-0.2255792649920887,"136":0.06427340525967272,"137":-0.004876907353887258,"138":0.07390849266555705,"139":-0.029037224241562073,"140":-0.0700351229586629,"141":0.13718126239155665,"142":-0.14723446901793047,"143":-0.1343262694929935,"144":0.11890588385041485,"145":-0.0902288569804213,"146":-0.3056698167088148,"147":-0.18546623877752488,"148":-0.006863665263946201,"149":0.05166418999628256,"150":-0.03528539100623013,"151":0.21399334011894908,"152":-0.05134511603185082,"153":-0.2721981171346529,"154":0.11297891562098236,"155":0.09931777907152957,"156":0.11445967594789756,"157":-0.11328686087178617,"158":-0.1399510945379983,"159":0.14709119886393243,"160":-0.1829488401832508,"161":0.05364179524719079,"162":0.195275513678676,"163":-0.23181122554623676,"164":0.0452723937954868,"165":0.03890656038503774,"166":0.146528610367228,"167":0.05332668971625965,"168":-0.10501696342137802,"169":0.05359273401107766,"170":-0.19603484385980646,"171":0.10478335853716536,"172":-0.052163528307654285,"173":-0.06343740315610459,"174":-0.1573607242490635,"175":0.14185051178813465,"176":0.004212975666631136,"177":0.14561687043731675,"178":-0.14979432099372508,"179":0.020454040937445263,"180":-0.1523842065658899,"181":-0.02912363738306625,"182":0.06765388975006784,"183":-0.07023936712207865,"184":-0.058742783413917504,"185":0.018276133013077834,"186":-0.14431074299096044,"187":-0.10523202202872843,"188":0.1373541674182247,"189":0.17867826493221392,"190":-0.1129519037915465,"191":0.045239421721593225,"192":0.01762104610726027,"193":0.07543094727409942,"194":0.15915787964346914,"195":0.09485350171151855,"196":0.0013008347131839193,"197":-0.04341492623699391,"198":-0.0001222484654912697,"199":-0.15147220548195472,"200":0.1020749219213091,"201":-0.03685620497801952,"202":0.0011702068638105646,"203":0.2525077279550788,"204":-0.10794742754592536,"205":0.16554182913928325,"206":-0.11009284164816184,"207":0.16982076373263455,"208":-0.00040455894487178575,"209":-0.019987553589469374,"210":0.12936687708032413,"211":0.04267749565246684,"212":-0.2239135276472196,"213":0.03875119098540623,"214":-0.0693613192652484,"215":-0.17847073017195086,"216":-0.06899587157425247,"217":-0.21316758176998643,"218":-0.18754584882298694,"219":0.05197541135949251,"220":0.12183769324417733,"221":0.05439878932315578,"222":0.10661012131982817,"223":0.041354284478455766,"224":-0.14914346020868516,"225":-0.04388263075971208,"226":0.09973674401502336,"227":0.11089226532242956,"228":-0.052450127479074515,"229":0.24443218508173584,"230":0.07222226407106448,"231":0.19941484009640098,"232":0.1937128605238389,"233":0.2928760295579322,"234":0.21382545772359202,"235":-0.08389637028090047,"236":-0.10845173606597278,"237":0.1414273700191337,"238":0.13668772483937588,"239":0.25791235537276164,"240":0.19571827180134635,"241":0.15743549772265167,"242":-0.06173307200167014,"243":0.03482317463590582,"244":0.049129873120580286,"245":0.10820365546579765,"246":0.13225525897614587,"247":-0.01609125676007586,"248":-0.0877132110301034,"249":0.17656391875738034,"250":0.14668397886366688,"251":-0.10139740057865482,"252":0.060524172543285785,"253":0.07958075547824044,"254":0.2782122911037642,"255":0.2669316280779714,"256":0.05810197918570068,"257":-0.024209730711891614,"258":0.1293082263105016,"259":0.162039572140518,"260":0.07237063594042249,"261":-0.0812276021430272,"262":-0.05821785979664943,"263":0.2019887532931727,"264":0.12515652185144277,"265":0.1520884839410161,"266":-0.008913547609118179,"267":-0.05797077199643935,"268":-0.13332865116667075,"269":0.13420911513717754,"270":0.21670787089495375,"271":0.04409665121426259,"272":0.024319294049176036,"273":0.2240416676717713,"274":0.02920136017754959,"275":0.19068264149637154,"276":-0.03222307221010561,"277":-0.01332557372903215,"278":0.09971461666826044,"279":-0.015809862573450992,"280":0.031880673136390904,"281":0.07582819153535508,"282":-0.18768765079754252,"283":0.050060259487418345,"284":0.018019525546270045,"285":0.08426362471102457,"286":0.07589610521232414,"287":-0.14496901752826372,"288":0.0451766660670323,"289":-0.0475252041792484,"290":-0.1497820159822951,"291":0.23540666101647809,"292":0.072745286346832,"293":0.007245139444044395,"294":0.040303212953009926,"295":-0.14116963264502466,"296":-0.007056176577403998,"297":0.11696447718042335,"298":-0.10729585390782269,"299":0.09065362459125309,"300":-0.046058897316871336,"301":0.14175670622693992,"302":0.08146355751728318,"303":0.02327836802448569,"304":-0.011874116031427946,"305":0.1427365585692274,"306":0.010728473730498301,"307":0.11121568254335772,"308":0.023543420930927667}},"2":{"bias":-0.12741562363130818,"weights":{"0":-0.051139479679599587,"1":0.032928157464722795,"2":-0.06183354090873965,"3":0.07920884376777172,"4":-0.02200807236022999,"5":0.03827228569272153,"6":0.13238072765532058,"7":-0.09397883343449674,"8":-0.1797784051097287,"9":-0.08953741202782727,"10":-0.11713651203690925,"11":0.0753320055296673,"12":-0.05649798359764753,"13":0.14654123496441976,"14":0.11120206606433265,"15":-0.17129809487806666,"16":-0.000046054004766444716,"17":0.07420247792364168,"18":-0.1456305693706617,"19":0.09233654160335465,"20":-0.18537420217366796,"21":0.036157850055873846,"22":-0.10674097274160296,"23":-0.03178285933545916,"24":-0.19143622472486557,"25":0.08872302697371459,"26":0.05382444075949728,"27":0.1396815958913042,"28":-0.030299283488420984,"29":0.2293930954921404,"30":0.056926678754992126,"31":0.06909920867297577,"32":-0.002707960412534864,"33":0.14659511291771604,"34":-0.0069417805671960105,"35":-0.004869142481664216,"36":0.11934864362982564,"37":-0.020122939813751493,"38":-0.05992174981609661,"39":-0.09096990619452651,"40":0.08087161572147357,"41":0.18025294797386843,"42":-0.21109869327375705,"43":0.07597927571500888,"44":0.08446833630933072,"45":0.1653748732501491,"46":-0.16120942502695482,"47":-0.08627602965364266,"48":-0.20142678780926807,"49":-0.16349654113042567,"50":0.10799499101616139,"51":0.11564785486413039,"52":-0.15430821114677615,"53":-0.1408415535778631,"54":-0.12392371061119997,"55":-0.19389110341762603,"56":0.17064594475934322,"57":0.13478249045706453,"58":0.13048613312488744,"59":0.021639440588597982,"60":0.11742207579198662,"61":-0.08291213310050853,"62":0.10750402101691171,"63":-0.07120010767862157,"64":-0.22691034401357577,"65":-0.09542160230434917,"66":-0.13220527820186806,"67":-0.06999990682632413,"68":-0.05283749301577501,"69":-0.1130884458892898,"70":0.08593505390697197,"71":-0.11794922407715983,"72":-0.02827164125081439,"73":-0.17452916458142498,"74":0.17726627136644646,"75":-0.03324653041206681,"76":-0.19795953225108398,"77":-0.1835044937443113,"78":-0.12279114059024741,"79":0.17868686317733012,"80":-0.09390016330756491,"81":-0.05871175007448656,"82":-0.17421692401865474,"83":0.14833618451948025,"84":-0.17840035030403317,"85":-0.03220929657176086,"86":0.17797457825876514,"87":0.19725251415514922,"88":0.11582015061381772,"89":-0.10034871978496394,"90":-0.04822271014844064,"91":0.12386130874267685,"92":-0.18041322092244072,"93":0.03274875402701871,"94":-0.12914513803048255,"95":0.16048958801691748,"96":-0.03169392927356233,"97":0.1466176366899954,"98":0.020439558069818863,"99":0.18537913751336282,"100":0.0803253073481998,"101":-0.16180745114703418,"102":-0.0639128713711925,"103":-0.16255561937938898,"104":0.07427301310382231,"105":-0.0708411256124981,"106":0.16269074975239395,"107":0.05417362123526605,"108":0.041613897492053145,"109":-0.04995991490705713,"110":-0.11700143488527152,"111":-0.08419228063493088,"112":0.1390395411401928,"113":-0.1986755284096439,"114":-0.20084491442772143,"115":0.11932058198045863,"116":0.07336758252509683,"117":0.10060396087250185,"118":0.04310638642152427,"119":-0.07267061199606936,"120":0.1655780376976908,"121":-0.025238749052287023,"122":-0.08583880354205073,"123":-0.0036121882465649296,"124":0.02073947598008858,"125":0.13077200659912686,"126":-0.06798460385919948,"127":-0.16221268839920722,"128":0.15315981162285291,"129":0.13242867150639684,"130":-0.07159082769712147,"131":-0.07265343746103714,"132":-0.008646038351216148,"133":-0.10207218554503227,"134":-0.06503878931114203,"135":-0.0533648665011325,"136":0.00030174305964307194,"137":-0.06261840597380727,"138":0.0937189176220617,"139":-0.003318755359421039,"140":0.008128599192147933,"141":0.11392823101715403,"142":-0.05468593566415766,"143":0.0507448742589734,"144":0.02665536704904292,"145":0.016420636867395113,"146":0.1901994766605343,"147":-0.06615452823917381,"148":0.13928349726906572,"149":-0.024029396987538247,"150":-0.11678935088515048,"151":-0.13455606595870095,"152":-0.15647229975496987,"153":0.14290678496681058,"154":0.15773341700635032,"155":-0.13027449311326458,"156":-0.07977167484176047,"157":0.09553274839345656,"158":0.06095293057780658,"159":0.0731464529108376,"160":0.14556447041704776,"161":0.1690487381006439,"162":-0.04515072781239649,"163":-0.06721721812561084,"164":0.1836334913454718,"165":0.13206217552947888,"166":0.006021624069508207,"167":0.031341632641164,"168":0.13968499605320392,"169":0.0804069225704605,"170":0.0982692762397584,"171":0.06605785520735369,"172":-0.18069304670004202,"173":0.014453698034842536,"174":-0.04175452492500852,"175":-0.13034524037194947,"176":-0.17919393261274316,"177":0.18532475845079655,"178":-0.02754299550983625,"179":-0.035680077542269095,"180":0.07463140900973451,"181":0.07362237391942096,"182":0.020018121757748353,"183":0.0038169952408720325,"184":-0.12350150646575908,"185":-0.19457288644031182,"186":0.08168572285813007,"187":-0.042407382846314685,"188":-0.18534244201530276,"189":-0.07617507880080371,"190":0.08252299078135472,"191":0.05000401182430365,"192":0.07094159965930742,"193":-0.09435594995047693,"194":0.11069834470032341,"195":0.1763025672744675,"196":-0.04127768825805191,"197":0.006028481859009863,"198":0.07733844121152889,"199":-0.17470291247004444,"200":-0.15653018685515854,"201":0.0656771610487229,"202":0.08858279643260887,"203":-0.08738023371917245,"204":0.18740970200658943,"205":-0.04449328452172564,"206":-0.007425656806787525,"207":0.02261663700447903,"208":-0.11338558576844206,"209":0.08150754192940012,"210":-0.07321372464715407,"211":-0.13652339751945258,"212":-0.07890293199545118,"213":0.15646059802284604,"214":-0.14188842225669768,"215":0.08257785916835905,"216":-0.05477398026925351,"217":-0.1451590035107326,"218":-0.04148519924930661,"219":-0.1293310876223678,"220":0.02280993899978942,"221":0.18696078146566206,"222":-0.11972979125346128,"223":0.11679527519410882,"224":-0.11929528145203255,"225":0.028958043823517673,"226":-0.07039141775289018,"227":-0.141939568235267,"228":-0.00828062882598564,"229":0.06084507738895258,"230":0.09693943509101392,"231":-0.20119048367713704,"232":-0.18489165882581027,"233":0.017838701644786906,"234":0.07804038760516256,"235":0.06692959751338379,"236":0.09847683790032316,"237":-0.18407137400029003,"238":0.07158976298525141,"239":-0.15319043299328156,"240":0.05196339552418238,"241":0.1459449059692928,"242":-0.16124774070814762,"243":-0.15520852705127025,"244":-0.1637691017930739,"245":0.07297171324810857,"246":-0.19620080734496329,"247":0.019971350209402095,"248":-0.14342654439999442,"249":-0.013838513148863234,"250":0.17685057756152472,"251":0.0845218880912073,"252":-0.014541816039504439,"253":-0.1018806865117286,"254":-0.18781378338117977,"255":0.061671755004720115,"256":-0.023173016263390172,"257":0.1753982902907603,"258":0.016895541410077333,"259":-0.2047154352818101,"260":-0.20545249704709098,"261":-0.10364261666745647,"262":-0.014444229550414748,"263":-0.20212810063743555,"264":0.1001993693313908,"265":0.06616608990519622,"266":0.16189994804034258,"267":0.10328204419873942,"268":0.09228643912301414,"269":0.16823682678117877,"270":0.13531189334143157,"271":-0.17450875505170022,"272":0.00154264660489168,"273":-0.09811177837269679,"274":0.047899597452680916,"275":0.1109746945699096,"276":-0.19973436006693202,"277":-0.014367117655217023,"278":-0.14229178729239153,"279":0.07526190480342788,"280":0.19163985565980196,"281":-0.10008820877508101,"282":-0.06543451172790855,"283":0.12556604910183314,"284":-0.20269994804528524,"285":-0.1276491206693112,"286":0.03431517383997718,"287":0.15527745118331843,"288":0.04323272920456743,"289":-0.17560970537509413,"290":0.18190611472524354,"291":0.03451978956827833,"292":-0.0869114282999127,"293":0.11121045760004454,"294":-0.07307137126637857,"295":0.08697634305223366,"296":0.013737192164604773,"297":0.05320628317495011,"298":-0.1640715383869913,"299":0.037246478162876046,"300":0.16407288108307186,"301":0.16228730718637793,"302":0.05640733295401437,"303":0.06693021320032974,"304":-0.1264488461075212,"305":-0.17319065647642282,"306":0.10168870321811051,"307":0.09738093391001092,"308":-0.00591559328277063}},"3":{"bias":0.06719349657248162,"weights":{"0":0.07011106140410002,"1":0.0728447694039352,"2":0.18827760053528386,"3":-0.018945900347584234,"4":0.12674140967144734,"5":0.1578020807126323,"6":0.14094543729100475,"7":0.049053520001557244,"8":-0.10125235756673602,"9":-0.03409540864484552,"10":-0.15358042311628228,"11":0.08266590835138218,"12":0.03645094906902175,"13":-0.08122093583523755,"14":-0.11638732271884172,"15":-0.052125987427814824,"16":0.18717704632680462,"17":-0.07349666111596323,"18":-0.18707047620741415,"19":0.07840645277135064,"20":0.1626735358292385,"21":-0.10145069917266869,"22":-0.06414293597332929,"23":-0.059000746649390846,"24":0.1587108478167611,"25":0.23862774018409835,"26":-0.09049048341264941,"27":-0.11178477067813923,"28":0.037195961531868,"29":0.1609595929277718,"30":-0.092200539470607,"31":0.1099068789056856,"32":-0.061442374067394535,"33":0.04755789716317619,"34":0.1375546423524937,"35":0.17995687949932732,"36":0.0837546757076815,"37":-0.0421757318679663,"38":-0.039694529272314365,"39":-0.1046774688276988,"40":-0.07215137266743743,"41":-0.11996262218702088,"42":-0.10492263937901387,"43":0.1609920557699503,"44":0.1897351747165416,"45":-0.059298748764514235,"46":-0.12504309663243401,"47":0.013331735995192337,"48":-0.011382994550983827,"49":0.15216338040610228,"50":-0.0694491697685996,"51":0.08978878513105878,"52":0.010877163751827547,"53":0.05760481722511996,"54":-0.1090213517578221,"55":0.016839142678466094,"56":0.24878433828719956,"57":-0.0551187679739422,"58":-0.07935868991017858,"59":-0.173124466465981,"60":-0.045533287363524765,"61":-0.1467928463337331,"62":0.15291736379216064,"63":0.1550819880511446,"64":-0.11098537574165919,"65":0.017903477453579165,"66":0.005157141393229808,"67":0.21979878309273082,"68":-0.0125374904004754,"69":-0.048150222051971114,"70":0.17167705405517306,"71":0.16815330298941186,"72":-0.11099808835244149,"73":-0.10673310813469615,"74":-0.04701618682218414,"75":0.17757665749678936,"76":-0.12468785673142176,"77":0.1955894695167428,"78":0.17090108855647665,"79":0.20664476360992942,"80":-0.05749103969794187,"81":0.2526734737047721,"82":-0.011629195788132278,"83":0.2762957587172495,"84":0.02301718849049423,"85":0.27220506358858554,"86":0.2663340087797557,"87":0.17315191294845506,"88":-0.007068050189384102,"89":-0.09416382949729042,"90":0.0668353089291226,"91":0.1744829857025662,"92":-0.1275237035343199,"93":0.11814008405743649,"94":0.19534610644024294,"95":-0.06162585212699325,"96":0.1567449065945252,"97":-0.057653467066524106,"98":0.1927502977847976,"99":-0.02884121387459512,"100":0.051928397772819525,"101":0.3165916922179067,"102":0.01049153813613046,"103":0.2394524942434225,"104":0.10870687435494664,"105":0.011187165032360339,"106":0.16943343613549275,"107":0.02344065111406951,"108":0.2518256885933996,"109":0.14601717864941816,"110":0.02233120330244982,"111":0.04050863153222609,"112":0.2345893455538667,"113":-0.3764997925774704,"114":-0.07560757737695466,"115":0.36406673028900094,"116":0.31268434872464634,"117":0.3808508138660189,"118":0.07949153160481105,"119":0.21913692554695524,"120":0.22875448608831833,"121":-0.028957252340712863,"122":0.021884423095099505,"123":-0.10314498862001324,"124":-0.14277487677916106,"125":0.010137160963941908,"126":0.20540342549479917,"127":-0.27234512075133055,"128":0.14739464731241758,"129":0.023760951222804576,"130":0.15538478175376558,"131":0.024979119574265865,"132":0.1537752793698073,"133":0.02208934000126225,"134":-0.1033433381380978,"135":0.07697492829663265,"136":0.010856215217189618,"137":0.29062337659720927,"138":0.1300198066254865,"139":-0.005357267739065384,"140":-0.08838640973538836,"141":-0.10203875992353621,"142":0.17810368469141696,"143":-0.08625450835504377,"144":-0.01857713967781926,"145":0.08230575530778964,"146":0.37698288128796625,"147":0.059457951037721106,"148":0.02066251890512639,"149":0.03271174482197008,"150":-0.12336586106428724,"151":-0.0196857539449818,"152":0.07570842087149854,"153":0.06339102594286879,"154":0.2693565494831246,"155":-0.10266199717520902,"156":-0.10571842795003256,"157":0.18066826589663618,"158":0.18683835185569314,"159":-0.04100018913049333,"160":-0.03559925748374801,"161":-0.1248042230484415,"162":-0.1439154945292066,"163":0.30793303944861933,"164":0.07971761758807816,"165":-0.04750854789215573,"166":-0.05207473707113643,"167":0.26910567320296724,"168":0.06952697350297148,"169":-0.05907677712312628,"170":-0.16192041306264915,"171":-0.07879182228785483,"172":0.1154647882589433,"173":0.13353735943754616,"174":-0.15756963667333346,"175":-0.13668805685104815,"176":0.246860320167155,"177":-0.052357656499984535,"178":0.18382165078778614,"179":0.1749341044633957,"180":0.026680503934210783,"181":-0.276800238206219,"182":0.1712396890650369,"183":-0.015742072926697232,"184":-0.037591302771430794,"185":-0.22735032382059273,"186":-0.06034033906340063,"187":0.12667458471794624,"188":-0.17927182489166654,"189":-0.029379784274783157,"190":0.16985132690304156,"191":0.22518737009535117,"192":0.11774186227037095,"193":-0.01312306730144234,"194":0.11507630264322193,"195":-0.06150135535106973,"196":-0.008734311819592234,"197":0.13270508142432522,"198":-0.15561662659711048,"199":0.047490541602853154,"200":0.16075992400226505,"201":-0.1669637773610349,"202":-0.005016730330632062,"203":-0.20716506837402,"204":-0.16831076354608082,"205":-0.03779738141371794,"206":0.11208369999627993,"207":-0.05608510335331758,"208":-0.06381748986440089,"209":-0.071779836280562,"210":-0.00016707718071084168,"211":0.19449378100343787,"212":-0.007862455103496082,"213":-0.1724358308884148,"214":0.07312162289133048,"215":0.11649389742648335,"216":-0.06915634415523744,"217":0.14214416198226246,"218":0.2393117640563792,"219":-0.020092136830263268,"220":-0.03275638769932158,"221":-0.15289458869636063,"222":0.16461799331248778,"223":-0.01242034978496618,"224":-0.1547797142758839,"225":0.18481979397422083,"226":-0.006357575612621601,"227":-0.44980293548483397,"228":-0.21598469509861654,"229":-0.35825288664375615,"230":-0.1673442823029434,"231":-0.15303430856544,"232":-0.10623608130612486,"233":-0.1934935917247705,"234":-0.1495986346389708,"235":-0.2927337177144332,"236":-0.0015101488788635891,"237":-0.09449976442772129,"238":0.08282889724542249,"239":-0.17266844128416475,"240":-0.2117962504953195,"241":-0.22478869058286605,"242":0.03318575570856664,"243":-0.0450771112636425,"244":-0.24712189036603618,"245":-0.2827427350316412,"246":-0.34418387180439763,"247":0.023148487936215375,"248":-0.2525480428011565,"249":0.05177508893192665,"250":-0.1757069822608492,"251":-0.1688276567832113,"252":-0.37361806832948224,"253":-0.34046849409936536,"254":0.06088090803156544,"255":0.030966965660790494,"256":-0.05071847898436854,"257":-0.08821969195929674,"258":-0.2402207391279479,"259":-0.09184814548615328,"260":0.09225340625453182,"261":-0.12365339353726763,"262":-0.14343599859022715,"263":-0.20591919433719996,"264":-0.07363802582420381,"265":-0.04965943780679925,"266":-0.038199422708118456,"267":-0.1575420801342304,"268":-0.12489700998137294,"269":-0.08249940586451028,"270":-0.08155203303838869,"271":-0.15858436997662562,"272":-0.23641904240905032,"273":0.1099847181544145,"274":0.16456109954131207,"275":-0.00312989454418585,"276":-0.173448852508722,"277":-0.17474106550230822,"278":0.10983339995755766,"279":0.17131672227367714,"280":0.1467894921648452,"281":0.09727626528317565,"282":0.12360166135216678,"283":-0.04523723178798323,"284":-0.1915504992790098,"285":-0.16671977194983473,"286":-0.029325295223591334,"287":0.10902440376426265,"288":0.13202022321240836,"289":0.07839359211736334,"290":-0.19278589121616094,"291":-0.12562207208929493,"292":-0.22219273956393376,"293":-0.020441350583020147,"294":-0.18743712767995677,"295":0.09569576656380463,"296":0.13817733179285696,"297":0.0075137744530522025,"298":0.028817128493768097,"299":0.11267998157887318,"300":0.11531142146965054,"301":-0.15242404335740062,"302":-0.09597867519904082,"303":-0.02667930414996586,"304":-0.26370118752843386,"305":-0.20182654573828268,"306":-0.0051111487579553645,"307":-0.1479406102818248,"308":0.03693262266684572}},"4":{"bias":-0.14342965980544042,"weights":{"0":-0.1527132415808376,"1":0.03235815369433595,"2":0.04909934474289862,"3":0.05051864796625553,"4":0.1579330954443051,"5":0.22255798966967327,"6":0.08311871599262154,"7":-0.034002754897287796,"8":-0.08352036320568748,"9":0.16386281608126593,"10":0.1754384696197751,"11":0.030105389664688245,"12":-0.057281403098751654,"13":0.10607639772360535,"14":0.20305433414280727,"15":0.1642970532413829,"16":0.11132842235312575,"17":-0.08361173997819592,"18":0.028303415924395635,"19":0.022212481316999627,"20":0.020392765759622945,"21":0.008851921221115793,"22":0.1593626459768653,"23":-0.013213170786418598,"24":0.18205827130111138,"25":-0.1084919452021736,"26":0.1654313330117946,"27":-0.006494981833660794,"28":0.059039008598609756,"29":0.3369184266022172,"30":-0.2935445393900846,"31":-0.08982054802727386,"32":0.19149287555916542,"33":0.01938202961081916,"34":0.056449394116509656,"35":-0.08773308146855532,"36":-0.21199433713998198,"37":-0.18226224007524874,"38":0.15399713323191566,"39":-0.16120402698101002,"40":-0.14609510095670245,"41":0.128243008544023,"42":0.13399101622663848,"43":-0.1281085244785608,"44":0.12591126933077396,"45":0.15849915605167908,"46":0.09233922443009059,"47":-0.13420819103321976,"48":0.1208835737915226,"49":-0.12931036440140456,"50":-0.16065914851263174,"51":0.17593916557808428,"52":-0.06130433545659753,"53":-0.017494551702485355,"54":-0.05547803164716846,"55":0.18970294317295333,"56":0.15119667070489407,"57":-0.1825253745198442,"58":0.1914924208924174,"59":-0.012147278597846766,"60":-0.14623208176766309,"61":-0.11662838495631017,"62":0.10148759760328092,"63":-0.05896721520501417,"64":-0.3198975381594235,"65":-0.034372615453634146,"66":-0.12222550257434728,"67":-0.06408172414018158,"68":0.10221310891426895,"69":0.11046775744013122,"70":0.17877242439318775,"71":0.04375705050811243,"72":0.11174471368533635,"73":0.12851166978287823,"74":-0.06662307602635557,"75":-0.1394222361004906,"76":0.09486062268868158,"77":0.09045108048813218,"78":0.16459500578264924,"79":0.2133136446664068,"80":-0.0175363837299494,"81":0.36394645608924003,"82":-0.17195681752404673,"83":0.05215900613700461,"84":-0.05779207569231095,"85":-0.03526727849294891,"86":0.16384399228655128,"87":-0.024188177250297652,"88":-0.1328057741669186,"89":0.09809029365564617,"90":0.21059463593322433,"91":0.0024467951266065277,"92":0.24045336944840004,"93":0.10944687017644636,"94":0.18042124801669163,"95":0.197558855805522,"96":0.06883463220226749,"97":0.11454994360280639,"98":0.08341854802593911,"99":0.08715758396125826,"100":0.09691685408852069,"101":0.049064346840211076,"102":0.07999813696315573,"103":-0.02071805974034626,"104":-0.11451463516190032,"105":0.1176831329936142,"106":0.029584467935745293,"107":-0.05775434431834307,"108":-0.05325080675652825,"109":-0.05350123692371246,"110":0.2455653016913041,"111":0.2666778482268156,"112":0.1460278409677627,"113":-0.3629341121226408,"114":-0.12995064094640313,"115":0.4393609103296621,"116":0.14054251596086095,"117":0.040398066886660686,"118":0.18547853273277132,"119":-0.018812455128251693,"120":0.008750175266625073,"121":0.26050910417950707,"122":0.31350293223985465,"123":0.05996704765110747,"124":0.16320446681689937,"125":0.015759570958283644,"126":0.044103082756181244,"127":-0.22342937905310956,"128":0.23065713218200457,"129":0.12085979475142633,"130":0.1587770898582926,"131":-0.005768188495719193,"132":-0.04477301695589659,"133":0.06315773448843547,"134":-0.12583646415369368,"135":-0.039066994191476294,"136":0.2511876263375229,"137":0.07895751667775434,"138":0.07959349167541041,"139":0.24307261580489029,"140":0.10857349990576699,"141":0.20210976557749538,"142":-0.14142873119663507,"143":-0.15841356646581095,"144":-0.07634834342501944,"145":0.18515326324704237,"146":0.0855941598234287,"147":0.1950419053602156,"148":-0.029265817563589792,"149":0.08356261224372935,"150":0.04307021800658412,"151":-0.03504607706433074,"152":0.01029590472983755,"153":0.07834658402008961,"154":0.2926738419467965,"155":-0.05424765695889786,"156":0.14887499881170438,"157":-0.07231975702080078,"158":0.07692851048784406,"159":0.16941749106780196,"160":0.1185061856005263,"161":0.08782357669207115,"162":-0.06232378853623612,"163":0.13979559220100415,"164":-0.15144911539784106,"165":-0.12812769619238792,"166":0.05441204299684543,"167":0.14795116037904651,"168":-0.015137432650778562,"169":-0.17965278792363293,"170":-0.03081539438949788,"171":-0.05514744275697206,"172":-0.18725613107413103,"173":-0.1090693273500364,"174":0.07607444495593312,"175":0.1219193408313849,"176":0.09285119584761682,"177":-0.13876469804490543,"178":0.010337954870764991,"179":0.0049156780650925335,"180":-0.16626725027053324,"181":-0.2454842709254479,"182":-0.05962610302797736,"183":0.20074319791703948,"184":0.08770689861720099,"185":0.1345156868347643,"186":-0.029503881108905984,"187":-0.017190072797030005,"188":-0.028623143753330162,"189":-0.13806338353927863,"190":-0.10072211750348535,"191":-0.07834712033151557,"192":-0.0043260264930948256,"193":-0.18980541058238246,"194":-0.17771633106548232,"195":-0.15880374810433115,"196":0.15175683823266914,"197":0.18713007679411597,"198":0.016281868733725235,"199":-0.1620904133561986,"200":0.061058270297749045,"201":-0.19387935206627638,"202":-0.1552123050074656,"203":-0.11780097393187434,"204":0.1491650676864626,"205":0.186068774365259,"206":-0.012067003077139279,"207":0.20865792012781328,"208":-0.07570723056255806,"209":-0.12284258061072027,"210":0.0964395074948103,"211":-0.08268797939716654,"212":-0.03778560258415611,"213":-0.06968728041208352,"214":0.136511297752958,"215":0.03353336953644128,"216":-0.14849206858569472,"217":-0.10399139873289968,"218":-0.12984071109249526,"219":-0.017235031178097108,"220":0.1726274323356667,"221":-0.15600081428476806,"222":-0.029781255318655983,"223":0.040196078208385076,"224":0.1251843338255401,"225":-0.19266612900585076,"226":0.17978416967557528,"227":-0.09820800304727711,"228":-0.09328476337843088,"229":-0.0889786199734194,"230":-0.11464475497190336,"231":-0.03247566339219427,"232":-0.2750901262820349,"233":-0.30590287727384674,"234":-0.19699010375096718,"235":-0.1615580761260723,"236":-0.24070695610412918,"237":-0.11397830362370877,"238":-0.11775021335691203,"239":0.09179776020645418,"240":-0.2836283723808482,"241":0.05759502083136487,"242":-0.13607821673684767,"243":-0.005061736522581313,"244":-0.0251272872154273,"245":0.008119564973711657,"246":-0.062007727596619475,"247":-0.14911110931081945,"248":0.05656296751515077,"249":0.11363759803893952,"250":0.16061841777204802,"251":-0.03732813508748319,"252":-0.25014135913390384,"253":-0.34480256845337504,"254":-0.11682163257996349,"255":0.04372330336776519,"256":-0.11896032043866286,"257":-0.18549427187849113,"258":0.07028264999809833,"259":-0.12573150585769766,"260":-0.25152119383554017,"261":0.1262749285980343,"262":-0.11746261784878109,"263":0.05947721972299442,"264":-0.07213603036659053,"265":-0.0393264446533746,"266":-0.1375883120183911,"267":-0.1593580469096754,"268":-0.26691117728680536,"269":0.10877282076861959,"270":-0.23302320047886155,"271":-0.19641191452288412,"272":-0.2073226931136459,"273":-0.23094058079751725,"274":-0.05480261787661757,"275":0.015910763201757983,"276":-0.16323083777088862,"277":-0.07341910293573847,"278":0.012550948974082012,"279":-0.02239578604519307,"280":-0.20623393753976813,"281":0.01980302126909906,"282":-0.07177622238310077,"283":0.1789774833288231,"284":0.020992544362533665,"285":-0.20407071134227944,"286":-0.15939919753550885,"287":-0.015961486608622302,"288":-0.17509544845197705,"289":0.016649396283579018,"290":0.009107771885947448,"291":-0.04144825684399104,"292":-0.09990186016359166,"293":-0.06690998622676222,"294":0.12004872729778622,"295":0.09672641304564313,"296":-0.08176296660969934,"297":0.06705903192533537,"298":0.17350909718680302,"299":-0.09656627656575976,"300":0.023664553307644214,"301":-0.07216670984214256,"302":0.0742392113956606,"303":-0.12253990177022965,"304":0.08450422326667653,"305":0.08256804805506203,"306":0.050790950073538274,"307":-0.11997465652504612,"308":-0.10349775018400768}},"5":{"bias":0.06555932630591366,"weights":{"0":-0.06150067073657568,"1":-0.09037721484401566,"2":0.050345985094937866,"3":-0.10760143046124002,"4":-0.10318143012734325,"5":-0.024505071114962907,"6":0.007553681356899028,"7":0.22340128331552206,"8":-0.14403077269858422,"9":-0.15498045392752013,"10":-0.2135021271112769,"11":0.11792309993556022,"12":-0.15934617955376232,"13":-0.09230220556921823,"14":-0.11120193394349302,"15":0.13741003489518377,"16":-0.02628235118597631,"17":-0.06542874028220635,"18":0.08773579623794064,"19":0.1882477694107345,"20":-0.011227411642999556,"21":-0.11812041460441614,"22":-0.10750128198852327,"23":-0.1695008052927724,"24":0.006844124713045776,"25":0.24717764605698161,"26":0.1738516810807183,"27":0.02047978543721199,"28":-0.10821799704830318,"29":0.38604330609615545,"30":-0.14649366818227558,"31":-0.033768865177199,"32":0.03664823937928674,"33":0.09449453284382281,"34":0.19796118795296197,"35":0.16212018952015833,"36":-0.2540450616375644,"37":0.20385840111928577,"38":-0.12595394522176748,"39":-0.1277810966595515,"40":0.027759152978700824,"41":0.18837108184628193,"42":0.10705721905049818,"43":0.09979650072873933,"44":0.09527528576877231,"45":-0.11202201451780493,"46":0.021484403343303073,"47":-0.12620459973600884,"48":-0.015971057718867254,"49":0.2025070261810215,"50":-0.1441735847630436,"51":0.05517342340521632,"52":-0.055114291187568845,"53":-0.06509432586156566,"54":-0.02839446114490206,"55":0.09273446487028847,"56":0.18513827960501775,"57":0.1636210124277913,"58":0.07019968216631012,"59":0.05595094437015309,"60":0.006197878765821351,"61":0.12180334830847007,"62":-0.02293474497357268,"63":0.18025588841237472,"64":-0.314637470141143,"65":-0.007198921527719339,"66":0.16510094799461233,"67":0.19328584620802336,"68":-0.03992906386565843,"69":0.17460822696578993,"70":-0.021148473525515743,"71":0.2546512345610526,"72":-0.03158652323360762,"73":-0.04994122360878812,"74":-0.10127163501549036,"75":0.15367855588007667,"76":0.10040781127401599,"77":0.14942805700203388,"78":0.009920602133894743,"79":0.144201769831024,"80":0.09435373980071177,"81":0.3048851202992991,"82":-0.036413248559161816,"83":0.22377635460265333,"84":0.18968783106318823,"85":-0.04366859919277981,"86":-0.036696616780354636,"87":0.03387248878393996,"88":0.21991140081277802,"89":0.00743232370234506,"90":0.07191821482809814,"91":-0.14692724402674914,"92":-0.03762823279536618,"93":0.1671898942076535,"94":0.22655435251172745,"95":0.29534547702170044,"96":0.15533871299307137,"97":0.09990593280127937,"98":-0.07432837243551757,"99":-0.05355585752134192,"100":0.2237995259556368,"101":0.043314174384887286,"102":0.2605861433204033,"103":-0.06512392386416024,"104":0.23870146518930746,"105":-0.07597196102840309,"106":0.022799457270217777,"107":-0.1027622733941507,"108":0.19122783291686563,"109":0.219704193223864,"110":0.24921191948533924,"111":0.23314971718955754,"112":0.3346244090390901,"113":-0.42245539586682423,"114":-0.11262320805417968,"115":0.3462286135335381,"116":0.11593082855040078,"117":0.3678372387553213,"118":0.20421230196038181,"119":0.10832241569015064,"120":0.19826503706563176,"121":0.07295897121099025,"122":0.07871984094165706,"123":-0.20821757667576074,"124":-0.12296050967963426,"125":-0.058967776805360174,"126":0.01655564772625182,"127":-0.3483785806962552,"128":-0.07302586304159352,"129":0.24933520827278255,"130":-0.012806765206515606,"131":0.03286619888964632,"132":0.1645689573854995,"133":-0.1456115866813958,"134":0.13790262732523642,"135":0.2503014340639248,"136":-0.005209902713121311,"137":0.22275941716831796,"138":0.3201590819344939,"139":-0.05854511678017061,"140":0.15695065840242511,"141":0.11999152706777014,"142":-0.13453230955830436,"143":0.2427089502593867,"144":0.09727522483769979,"145":-0.14381931138609985,"146":0.08031354879483125,"147":0.2275616818140967,"148":-0.08027204684308285,"149":0.04025525005298115,"150":0.08114088320373082,"151":-0.09579570743048703,"152":-0.006890816467720545,"153":0.09292387870046669,"154":0.0370557822756891,"155":0.10064554192319695,"156":0.06980470481124111,"157":0.2492091008484492,"158":0.20659339436011867,"159":0.06352876699592833,"160":-0.1524854115255738,"161":0.04721982457007938,"162":-0.034662390424272944,"163":0.2923639540723062,"164":0.17530185592160527,"165":0.14069256691530296,"166":0.11323201048890336,"167":0.14687835069194904,"168":0.0015350370428686999,"169":-0.11848021066638662,"170":-0.10554762496843159,"171":0.07618256826673206,"172":0.012828728344680788,"173":-0.1757955427187843,"174":-0.18423406986253563,"175":-0.0970428151629724,"176":-0.09907072097146745,"177":0.07961652177750256,"178":0.1110781647998938,"179":-0.03980256986496439,"180":0.07197822551339106,"181":-0.041711993598684306,"182":-0.08537570409985967,"183":0.14515528088506519,"184":-0.1876128517938803,"185":0.1417960302795282,"186":0.091404011771817,"187":0.05754952389508685,"188":-0.10869210216296811,"189":0.06690505120394998,"190":0.0844126528196533,"191":-0.07318507539895638,"192":0.17799963144727082,"193":0.1415147589430692,"194":0.047144330054342924,"195":-0.11971828273860813,"196":0.08743590077147442,"197":0.01493583607352443,"198":0.1930464672149392,"199":0.007221287155567647,"200":0.07243976587194384,"201":-0.04910269450834282,"202":-0.08143935896197194,"203":-0.1844896763097662,"204":0.07077716748778598,"205":0.01815378574672409,"206":0.15272929947891076,"207":0.11193294394929618,"208":0.18017379820468454,"209":0.04026142093968007,"210":0.2688639724184516,"211":0.12404680042162652,"212":-0.04920269251482311,"213":-0.18104390005369123,"214":0.2606645865760182,"215":-0.10335223822105681,"216":0.1348778524160608,"217":0.1561901985204717,"218":-0.07062267644857005,"219":0.05516015618356897,"220":0.01872646015668204,"221":0.20011942046959091,"222":0.1457749380399035,"223":0.03315616921892021,"224":0.17650289375806677,"225":-0.029490473560343792,"226":-0.022415014768199407,"227":-0.31541410538626363,"228":-0.10157392817331622,"229":-0.09066936018692304,"230":0.06500834245931196,"231":-0.05965148384470249,"232":0.02093378977456935,"233":-0.2202946590993172,"234":0.09666073810169155,"235":-0.2512556919927669,"236":0.035824451083064174,"237":-0.05188395580847577,"238":-0.28145703250473536,"239":-0.2022164759812927,"240":-0.13566174901627806,"241":-0.21291270908855703,"242":-0.04402018255474002,"243":-0.01269773571655034,"244":-0.21856991144718987,"245":-0.265507939434,"246":-0.24054332234024337,"247":-0.2031884536975924,"248":-0.2578916134208337,"249":0.06761570261414457,"250":-0.014140473646790488,"251":-0.12938082744315207,"252":-0.03851792580004367,"253":0.009754757264168221,"254":-0.26737053823683926,"255":-0.31393860471845036,"256":-0.04363952313107426,"257":-0.08834679176774297,"258":-0.2835294039889197,"259":0.034053179156086806,"260":0.03632174305193922,"261":-0.1619002599935928,"262":-0.22955456613397818,"263":-0.08350902855458284,"264":-0.13393651236847523,"265":-0.2454299666617397,"266":-0.24150457932876507,"267":-0.1061124954153765,"268":-0.23029271491360886,"269":0.09209693326695947,"270":-0.13676905267920975,"271":-0.24712074329077977,"272":0.05000949174978341,"273":-0.24479201249526747,"274":0.09776880214720836,"275":-0.15465389382778594,"276":-0.16370769603228666,"277":-0.22130745418866518,"278":-0.011459284481235963,"279":0.1783498359099914,"280":0.007409125828698684,"281":0.15410187111370907,"282":0.03438682133380701,"283":-0.025453746618125446,"284":-0.20954442964412964,"285":-0.1973798179621493,"286":0.06746140051910257,"287":-0.16813489782074637,"288":-0.2190365831642818,"289":0.05963822491473225,"290":-0.05848702199590951,"291":-0.2580557808535176,"292":0.04866797711346152,"293":0.0918442201698254,"294":-0.11781000893076382,"295":-0.1921779017642436,"296":0.011500691937506727,"297":0.14700801614104544,"298":0.12717982467560082,"299":0.05721042967727576,"300":-0.14129385087375723,"301":-0.04284974102135284,"302":-0.025544994521621914,"303":-0.07636699740546646,"304":-0.15523928615041643,"305":0.19601141724812893,"306":-0.06387861658055283,"307":0.05765836354195153,"308":0.1918886257717012}},"6":{"bias":-0.17028458897096113,"weights":{"0":0.10331244718982452,"1":-0.12898482402497788,"2":-0.13256892164071532,"3":0.05223390160989532,"4":0.16646511692952157,"5":0.0859166247527867,"6":0.02713275575155272,"7":0.01380689924637442,"8":-0.06366978799365318,"9":-0.21332489716346342,"10":0.02138993641902697,"11":0.12503877140941405,"12":0.09971697056706327,"13":-0.030157662050011358,"14":0.16179371767343115,"15":0.012825550543518924,"16":-0.07663163286368302,"17":0.007100138183016769,"18":-0.14572570869498058,"19":0.05865383517122107,"20":-0.16902636769161625,"21":0.09926050934839613,"22":-0.1637632216818668,"23":0.1635225380191649,"24":-0.08666093584649999,"25":-0.1327095603452296,"26":-0.23755244026876732,"27":0.012628021204407508,"28":0.09332863140536106,"29":-0.2925791466554093,"30":0.11197101991764072,"31":0.11006041964476819,"32":0.15673758535868404,"33":-0.011787777752239157,"34":-0.11029320542263175,"35":0.03599541777095279,"36":0.11426082885827231,"37":-0.025623360954703064,"38":0.0682041937105878,"39":-0.0988978931733582,"40":0.04117686985956741,"41":0.16068364047814632,"42":0.0794330684140183,"43":-0.10738976782496329,"44":0.1834634000416141,"45":0.03197339619667768,"46":0.08418990979314982,"47":0.120341487564678,"48":-0.08293067140843692,"49":0.11504348743538294,"50":0.10631240813028003,"51":0.16647388056366602,"52":0.15725092128781376,"53":0.11513387393834577,"54":-0.08734080370946175,"55":0.007419911527156428,"56":0.07723757722362658,"57":0.07338657358945526,"58":-0.10506760203243129,"59":0.18744631180433913,"60":0.15331603625081397,"61":0.00457422478358935,"62":0.13303352423539633,"63":-0.06738177950519868,"64":-0.01929756590438385,"65":-0.09286453168143056,"66":-0.18579634697275388,"67":-0.08459237503932308,"68":-0.021423463797919966,"69":-0.11486672586507495,"70":-0.09465982063312356,"71":-0.08934828904081993,"72":0.024659251598678784,"73":0.10999300453214671,"74":-0.13916095863465466,"75":0.13017333229535735,"76":-0.14205276055539434,"77":-0.19854414811284432,"78":0.16084138087404198,"79":0.06151220698898551,"80":-0.17171137198750483,"81":-0.15776971618104574,"82":-0.15602635560793005,"83":-0.216014881310927,"84":-0.17736237329140273,"85":-0.01953350724867425,"86":-0.16253228587998012,"87":0.045303266885637475,"88":-0.08875583730694873,"89":-0.22080269297743987,"90":0.10051829437744957,"91":0.005046481203228579,"92":-0.004609792914367709,"93":-0.15746154079429348,"94":0.059324302085929044,"95":-0.1845620911161998,"96":-0.02850402360835963,"97":-0.12026504291065745,"98":-0.14289127580817573,"99":0.05319413897912883,"100":-0.14855248185018166,"101":0.039850360099161486,"102":-0.08510687144887961,"103":-0.20246957398142326,"104":-0.17675701727470294,"105":-0.1360041396957993,"106":-0.07625721882767282,"107":-0.22477543969643132,"108":0.14819448571082677,"109":0.13753336238255198,"110":-0.08687915737707748,"111":-0.21723322997603656,"112":-0.32293689331884196,"113":0.20940887237639863,"114":0.12474318325546001,"115":-0.27417152361126756,"116":-0.05173096246696553,"117":-0.22988978499402024,"118":-0.22662433817643446,"119":0.043826554116079205,"120":0.1395358969909616,"121":0.053217425358911344,"122":-0.2512740950975322,"123":0.11429337459164465,"124":0.12208130575209464,"125":-0.0723526527547787,"126":-0.22833635411226377,"127":0.1874755889167354,"128":-0.16189119312991765,"129":-0.07834215950496781,"130":0.16185770462086702,"131":-0.041742368779606166,"132":-0.20575006624728953,"133":0.0709260637351262,"134":0.0923843989742187,"135":0.01147881953139761,"136":0.11993155338781573,"137":0.10123434949483177,"138":-0.22622035411837277,"139":-0.24529666947426965,"140":-0.07530538843229374,"141":0.11886971487030609,"142":-0.18954613103520027,"143":0.11888240319861296,"144":0.12257487115887224,"145":0.13827062863601977,"146":-0.05114166280740149,"147":-0.26076096975670715,"148":0.10470388646518729,"149":0.08001993990830696,"150":0.11542881959266797,"151":0.2236796593427078,"152":-0.14927571050589375,"153":-0.18914922561074515,"154":-0.09530540692552754,"155":-0.09846893395102635,"156":-0.10078380719638434,"157":-0.030093562572784262,"158":-0.05035920844710437,"159":0.03371201545601353,"160":0.15994506867498695,"161":0.0762084225685933,"162":0.10544005640261095,"163":-0.22635380698868,"164":-0.15640811103751426,"165":0.12984850922815402,"166":-0.17829807318365382,"167":-0.08866867185112132,"168":-0.12448867380919658,"169":0.0026004383852069914,"170":-0.10506925389650279,"171":-0.013110127414959176,"172":0.03633034452851303,"173":0.02614541917839086,"174":-0.09845404247155268,"175":0.18980591111808698,"176":0.022398463760074348,"177":-0.09336488350431896,"178":0.1212414397606147,"179":0.15067408815444727,"180":0.0716999497614781,"181":0.15481869029021364,"182":0.18992743228177528,"183":0.13557309601996595,"184":-0.16895348971161137,"185":-0.05405721102830686,"186":0.05486315579846878,"187":0.10005950176316232,"188":0.00034619869968702504,"189":0.19231008103715516,"190":-0.04395568189592522,"191":-0.026226070739876685,"192":0.10874448592424342,"193":-0.12801479781101513,"194":0.14847607796010553,"195":-0.1740577242689387,"196":0.12178464730900383,"197":-0.17709222542080197,"198":0.15475283431635667,"199":-0.014393315019072872,"200":-0.0019093298801206497,"201":0.03285078954240987,"202":0.020120318948731883,"203":-0.008266751594337226,"204":-0.14728599884343876,"205":0.1728036063869651,"206":-0.12298655457633213,"207":-0.21170242853269564,"208":0.03944527855174938,"209":-0.05408434789081788,"210":-0.02614349121145273,"211":-0.18958410410145693,"212":-0.1015218146419714,"213":-0.11801807572864262,"214":-0.14342969273408107,"215":0.09179637725100581,"216":-0.21380363918872114,"217":0.12165420471687477,"218":-0.010499199366397904,"219":0.11313009221344897,"220":-0.14146271241800987,"221":0.12096969173562071,"222":0.11113801962305568,"223":-0.04622677858670013,"224":-0.0017320643963775189,"225":0.15943023733790443,"226":-0.035727713476752576,"227":0.28468451812344675,"228":0.19308691733688788,"229":0.030184414722608157,"230":0.1025786112825257,"231":0.026424508162163424,"232":0.0957269725979718,"233":0.09525210403111266,"234":-0.08453960362787487,"235":0.13895389014076764,"236":-0.07016274278261514,"237":-0.06087528644909534,"238":-0.11393416589339696,"239":0.23745320243354953,"240":0.10217497723231021,"241":-0.13301111625700493,"242":0.13395757370906228,"243":0.08631372036900434,"244":0.185094442263724,"245":0.14731456595129647,"246":-0.02343695075416665,"247":-0.1340178179106522,"248":0.1770070112770127,"249":-0.12412588680937199,"250":0.023823885933208173,"251":0.1877576211337897,"252":-0.08260116252719164,"253":0.21725019764155765,"254":0.07453448064099304,"255":0.10732420647333761,"256":-0.06746655030793466,"257":0.1944679390681797,"258":-0.09934342414742542,"259":0.24705915168812317,"260":0.1861241870770556,"261":0.2371850128454236,"262":0.13121974671066214,"263":-0.0661642736838794,"264":-0.10565259858224503,"265":0.2742882519342205,"266":-0.13437838551813117,"267":0.1697965625899713,"268":0.08930491027182502,"269":-0.07817453244910563,"270":0.002677547489199722,"271":0.11489092679966789,"272":-0.08520332916724786,"273":-0.13691930264751523,"274":0.09265052716658367,"275":0.24356413832946033,"276":0.07992557537237902,"277":-0.1250207045196436,"278":0.09242618594745834,"279":0.07638215655528748,"280":-0.1525806404659982,"281":0.02437126172313674,"282":-0.17384655827606454,"283":0.07736480582985647,"284":0.19294002631061596,"285":0.23373325357392072,"286":-0.10855019917440098,"287":-0.12655740783875294,"288":-0.17980541962937055,"289":0.0031658017296346246,"290":0.06734609451035173,"291":0.10976926550548259,"292":0.06791511056605916,"293":-0.13368105410356684,"294":-0.11499894019830852,"295":0.04990689060032309,"296":0.007329545816022822,"297":0.10449418747636105,"298":-0.1064315877617632,"299":0.11206778944973264,"300":-0.15011448517711035,"301":-0.05357224307222738,"302":0.1238056267482924,"303":-0.05763605948189,"304":-0.08864220873834532,"305":0.08182414995584182,"306":0.07709073376903096,"307":0.2102831030255094,"308":0.008246727923524606}},"7":{"bias":-0.08680409324259405,"weights":{"0":0.09143303498915402,"1":0.016301194492067097,"2":0.1708229582214399,"3":-0.13394594465836954,"4":0.09952957255656837,"5":-0.015831598984021863,"6":0.1120615407524005,"7":-0.1208884370389112,"8":-0.05578546276021634,"9":0.17085409699559936,"10":-0.007613889502427068,"11":-0.19209268721169478,"12":-0.17106877017453728,"13":0.02278252705960328,"14":-0.14939126107857104,"15":0.0788801104154463,"16":-0.19117668055042966,"17":-0.07531996497663991,"18":0.013422545250342014,"19":-0.1767655222721273,"20":0.04412746526036599,"21":0.07126339221859325,"22":-0.1364025311856417,"23":-0.15538278496937058,"24":-0.21849776285813632,"25":0.13240350700281706,"26":-0.0024668456862791868,"27":0.04780489724180115,"28":0.12213170179098613,"29":-0.1411382113804284,"30":0.08940757715303567,"31":-0.035728821740792,"32":-0.06331112227418284,"33":-0.17798380624374968,"34":0.02404819937090509,"35":0.06479351924518041,"36":-0.09574067168270652,"37":0.10852054084754505,"38":0.09370063040707409,"39":-0.1490182836130555,"40":-0.12462777982074051,"41":0.0991591134776675,"42":-0.16073238003710563,"43":0.17046259081701082,"44":-0.02245688850561809,"45":-0.01315583063048293,"46":0.1869803645452131,"47":0.17450074814823724,"48":-0.009940340785772188,"49":0.07493344509414109,"50":-0.0319275105234252,"51":-0.1165374324639866,"52":-0.18848272931788967,"53":-0.0019563636294218627,"54":-0.13677260029785882,"55":-0.20245102334655313,"56":0.058463766807679445,"57":0.019485473394507843,"58":-0.07907319502353856,"59":-0.17543507965873797,"60":-0.05989694997760306,"61":-0.1076982162425047,"62":0.05839491764085507,"63":-0.14807844166158785,"64":0.1615958229358738,"65":-0.013998575394258196,"66":-0.11333569524910092,"67":-0.07334875477000129,"68":-0.12029919873837973,"69":0.016591961222199206,"70":0.0415098039281969,"71":0.07289074368725489,"72":0.024466486832068965,"73":0.044453462509444354,"74":-0.168804357456381,"75":0.1251307280854016,"76":0.1576459606142243,"77":-0.07165233730321713,"78":0.024313317022022315,"79":0.0854622521887283,"80":-0.10360690113167617,"81":0.08687255082055562,"82":0.12049626885012016,"83":-0.17894795048005033,"84":0.12073050333859103,"85":0.07257583181786585,"86":0.0005351912401625039,"87":-0.14500828526211068,"88":0.14428085936528562,"89":0.007683757520100691,"90":0.1148724715699451,"91":0.10076082653980876,"92":-0.09050991222654897,"93":-0.051366292399463914,"94":-0.07379496614423414,"95":-0.12447175407321114,"96":-0.19266199884252758,"97":-0.190073398874641,"98":0.13640638702085714,"99":0.12725086818230832,"100":-0.03380558746853198,"101":-0.05792706766766537,"102":0.13313079061488076,"103":0.06646168395474976,"104":-0.061421807228868835,"105":-0.06758280664012219,"106":0.13432918192119003,"107":-0.14488145921189197,"108":-0.009662006063021577,"109":-0.029383285329833357,"110":0.09013587262987573,"111":-0.128434179305678,"112":-0.15518761747162968,"113":0.20156557890941462,"114":0.1853247451148876,"115":-0.13658080450212878,"116":-0.14955106871496937,"117":-0.03645259923450935,"118":-0.03658124286277899,"119":0.08300730652000644,"120":-0.041126813866020545,"121":-0.1394037788655291,"122":0.08529856665114184,"123":-0.1049402163807705,"124":0.049904620739033456,"125":0.06065977064977224,"126":0.055592709428083184,"127":-0.08959477305428389,"128":0.01862994955193777,"129":-0.05435728778509629,"130":0.07015707821161166,"131":-0.11845438305252974,"132":0.05208532832211923,"133":0.05447798845165273,"134":-0.05002323938488145,"135":0.026547806745235557,"136":-0.02811333671247265,"137":-0.03890213432830154,"138":0.1724024628714947,"139":0.12143463491338885,"140":0.007044744590478777,"141":0.028171559857221952,"142":0.1414440993640896,"143":0.0726379224189244,"144":0.18806001891115784,"145":-0.18129524763529997,"146":0.005811392050630131,"147":-0.05486966917928469,"148":0.09953038499417405,"149":-0.15208814329714845,"150":0.02708471396658282,"151":0.1833374023994136,"152":0.13992480187239478,"153":-0.07677922524826046,"154":0.1269622757973846,"155":-0.07508288894391821,"156":-0.17206485723521525,"157":-0.20590216572902534,"158":-0.19016177994818126,"159":-0.1424199799105563,"160":-0.020807735346965447,"161":0.04894650996844721,"162":0.03204106913768745,"163":-0.0454887928508252,"164":-0.06298924407450232,"165":0.062053574902203514,"166":-0.014129491328995658,"167":-0.10460937071242542,"168":-0.14459657994359326,"169":0.11857782885025461,"170":0.15261385046322556,"171":0.05087723321749957,"172":-0.09590730909078335,"173":0.05289188598449686,"174":0.0389159806189411,"175":-0.03636545364978231,"176":0.09807395404348505,"177":-0.07281869040346636,"178":-0.10090241322729693,"179":0.06740410536506657,"180":0.059828032676118165,"181":-0.13002995486885421,"182":0.11052473272671717,"183":-0.19595044215737994,"184":-0.11973092973250037,"185":-0.012600314561318006,"186":0.02197727994838874,"187":-0.16180823488217122,"188":-0.002573956298256028,"189":0.03338883594665303,"190":0.10381299300605148,"191":-0.18615628323059302,"192":0.015713100669691404,"193":-0.1309173640803407,"194":0.08989303617411876,"195":0.10925149252097593,"196":-0.067622542458089,"197":-0.17317438852250389,"198":-0.10256748943300997,"199":0.18843155250666155,"200":-0.01230527781590913,"201":0.019843258958907855,"202":0.0042620564770346,"203":-0.09903194692078375,"204":-0.11961000002355758,"205":0.10522029375848521,"206":-0.030566341222589628,"207":-0.18646217079099306,"208":-0.19736597627229868,"209":-0.021993660952107242,"210":-0.06721296989332487,"211":0.05357542741748624,"212":-0.1700937940208608,"213":0.17647869028635096,"214":0.03895987133547612,"215":0.13855441601705099,"216":0.07802677555399969,"217":-0.10707587499429164,"218":0.15487743424094522,"219":-0.16538209527170009,"220":-0.12555721386772914,"221":0.018778966182323803,"222":0.03369954473973196,"223":-0.11430607404330866,"224":-0.08581199161357586,"225":-0.19485549871462443,"226":0.03894987074149172,"227":0.21372110132008396,"228":0.14338822618669803,"229":0.16612095104273172,"230":-0.07097350004809169,"231":-0.14280871280890117,"232":-0.166320065308174,"233":-0.061171753084599045,"234":0.16066795885708957,"235":0.00790801507743902,"236":-0.016833776320917346,"237":-0.1601563014963482,"238":-0.07115487878884065,"239":-0.11633027930586319,"240":-0.17901789451838412,"241":-0.14589692651644404,"242":0.1308359079785401,"243":-0.050392520026174774,"244":0.16817131957597398,"245":-0.15031934321817056,"246":0.07866820730739103,"247":0.053289970897579635,"248":0.11834142461787378,"249":0.04493778292505608,"250":-0.041880999486623945,"251":-0.10075578408875539,"252":-0.0013289148167855305,"253":0.16742477884649176,"254":-0.06253165076717616,"255":-0.04665006425221544,"256":-0.11784536781980798,"257":-0.1376140938713613,"258":0.10699261853796994,"259":0.11691114516128628,"260":-0.07160971754346768,"261":0.06137101784744247,"262":-0.0601355540000231,"263":-0.10192429911955433,"264":0.12313752840662819,"265":-0.08282724060263773,"266":0.0018861475459905816,"267":-0.07717733892392796,"268":0.0733175322089287,"269":-0.02826261374283444,"270":-0.15089800572397075,"271":-0.006685903552113936,"272":-0.08324352295285571,"273":0.05036910755291961,"274":0.08975138784051431,"275":0.0037894211911756845,"276":0.15416471887427285,"277":0.08501374482391898,"278":-0.05070106301596129,"279":0.12940159977934665,"280":0.0038034472973690397,"281":-0.08060943750556741,"282":0.029106929456212342,"283":0.11979906298588096,"284":-0.009623329490043922,"285":-0.07937234301805855,"286":-0.05685303222905017,"287":-0.14830804727946012,"288":0.02863727855610805,"289":0.011642164103240185,"290":0.05775044425097309,"291":0.02248100741617495,"292":0.12419633501471604,"293":0.14125749714779648,"294":-0.08820357933510492,"295":0.036939791274017766,"296":0.14559603636028795,"297":0.17722771679789162,"298":-0.17266864445937058,"299":0.01343906948941757,"300":0.13448332652458408,"301":-0.19525600310461327,"302":0.17515927947527996,"303":-0.017408564623947898,"304":0.1594533835445869,"305":0.037596484670390125,"306":0.06893751231142736,"307":0.18423092519767104,"308":0.10956557876486525}},"8":{"bias":-0.05385529303450565,"weights":{"0":-0.05449512920573597,"1":0.0884994160169584,"2":0.10786005470702392,"3":-0.19162373959370238,"4":-0.03496762970326368,"5":-0.09892100486027636,"6":-0.19409844637200915,"7":0.11773886854693107,"8":-0.21012187563114448,"9":-0.12795048611894178,"10":0.09556670971771641,"11":-0.008565293244395988,"12":-0.16957737666588488,"13":-0.10922155513024137,"14":-0.014559877760654937,"15":0.048725715890003754,"16":-0.036619803068335635,"17":-0.0066925337595888975,"18":0.04516307668363791,"19":-0.0444784002463417,"20":-0.3243116646221314,"21":0.015592297046524614,"22":0.16033328337842886,"23":0.06689190151954895,"24":-0.25523515139942105,"25":0.04579477360471522,"26":-0.19066335199934759,"27":0.15499108520117053,"28":-0.20723631098440362,"29":-0.27440731154650705,"30":0.2865396257060927,"31":-0.09727831451048505,"32":-0.11704612336182202,"33":-0.2003191896968727,"34":-0.020384389835728337,"35":-0.04809268918027407,"36":0.1695834757780799,"37":0.1605521715930017,"38":-0.0983262737294581,"39":-0.07002909824630414,"40":-0.15897156661447048,"41":0.17045123909021456,"42":0.10566140176049281,"43":-0.05199982647288022,"44":-0.02197624855912233,"45":-0.22563361729456524,"46":0.12211965764030396,"47":-0.18088472177131365,"48":0.08922484806184096,"49":0.004701987919766607,"50":-0.10998974215823021,"51":0.1570187501301237,"52":-0.03357959773017541,"53":-0.156102140432973,"54":-0.04809547490190222,"55":0.0026993726686509564,"56":-0.12701528058600944,"57":-0.040619351002221894,"58":-0.1871610685532774,"59":-0.07829785944295749,"60":0.037822368758417685,"61":0.11048425717042869,"62":-0.18130587950937782,"63":0.13156092958096857,"64":0.20384928283349565,"65":0.022829796743947042,"66":0.15077775315003575,"67":-0.18589415810852994,"68":0.06911296376263314,"69":0.03586379645696407,"70":-0.16700479339576452,"71":-0.14227754555476518,"72":-0.1456916631656535,"73":0.05421330604838825,"74":0.13141908660771248,"75":0.10081637818828579,"76":-0.05931483403522449,"77":0.09206883516238377,"78":0.1762332785183572,"79":0.06852273251998973,"80":-0.1816228866691628,"81":-0.2633367656862145,"82":-0.03373508694014829,"83":-0.22397442995290154,"84":0.002405724331596207,"85":-0.20223691534879049,"86":-0.21575557144141005,"87":-0.12138304284244258,"88":0.08912497077550834,"89":-0.22912363232123265,"90":-0.11157052442579381,"91":-0.22427916997983435,"92":-0.22704795912784415,"93":0.04016094177031577,"94":-0.22886953802719082,"95":0.024494520458862565,"96":-0.08416577064662199,"97":-0.08027074958998275,"98":0.05330684126368427,"99":-0.18049493738816733,"100":0.04991619588016195,"101":0.038171839703829105,"102":-0.04482426147858758,"103":0.12748483844295502,"104":0.011956237607614845,"105":0.023216565953799173,"106":0.006337772394138811,"107":-0.10015554441404141,"108":-0.030936212104912198,"109":0.11550066213784253,"110":-0.18389984338382098,"111":-0.044479929256938326,"112":-0.4078162734299838,"113":0.19749366853028713,"114":0.2409958384867033,"115":-0.3970047538852519,"116":-0.34878013565306876,"117":-0.02605898898819003,"118":-0.11651940620267398,"119":0.11976227460383525,"120":-0.015999437549974564,"121":0.005069214213329087,"122":-0.19944573560521298,"123":0.13496702547656542,"124":0.07650082049107519,"125":0.0772867243838599,"126":0.029868191133536757,"127":0.04096359453960174,"128":-0.026874674724404187,"129":-0.09012169292271513,"130":0.06955830652121414,"131":-0.05259822553376613,"132":0.03618169103898754,"133":0.04472156063278007,"134":-0.16760291543369324,"135":-0.269521822537092,"136":-0.056409520528194916,"137":-0.19002868740371215,"138":-0.20157758515665422,"139":-0.008037540010177502,"140":-0.1881692812395538,"141":-0.12269544167528383,"142":-0.15007768870515237,"143":-0.10468763303691817,"144":0.10700889117576558,"145":-0.1888842574008889,"146":-0.15884742150076425,"147":0.006044059661851153,"148":-0.12021018812134315,"149":-0.1296764368418748,"150":-0.06049375083643176,"151":0.15301621908475208,"152":-0.0587842222213184,"153":-0.2162623043522119,"154":-0.2549312746168022,"155":-0.13489510600848664,"156":0.1454464137246652,"157":-0.2096464185624979,"158":-0.14696132493644468,"159":0.04503276738561476,"160":-0.038341104605805344,"161":-0.09945015304179725,"162":0.1475828460148285,"163":-0.1105399497774718,"164":0.03775423181256746,"165":-0.07042972170397648,"166":0.02229903990437095,"167":-0.2310968451118523,"168":0.10117703413055465,"169":0.08127917373119856,"170":-0.08025155301479767,"171":0.16938562284454106,"172":0.007797942544745903,"173":0.21167516569893582,"174":0.13139559741719853,"175":-0.19593516497737817,"176":-0.1440629484088623,"177":-0.11381980684682226,"178":-0.1796164638481174,"179":-0.09872389199523625,"180":0.0978587123949482,"181":0.2204249074792139,"182":-0.1175997055861866,"183":0.15562574663912665,"184":-0.13923311282898246,"185":0.22882474507313066,"186":-0.1727984809941632,"187":0.1256199704418907,"188":0.13588594596525383,"189":0.13449353900561759,"190":-0.00723875992553299,"191":-0.02707815084013487,"192":0.030618375888489764,"193":0.1794814670437604,"194":0.06942159317576385,"195":0.10744509088723636,"196":0.028159473714790207,"197":-0.06697075939713779,"198":-0.09331739578031677,"199":0.15445346835953314,"200":-0.054890651886877445,"201":-0.11841394312053996,"202":-0.05670246000144936,"203":0.17642641943571752,"204":-0.09055788342019078,"205":-0.0015930532510864748,"206":0.12765179429173087,"207":-0.054032574784152305,"208":-0.10101767630245621,"209":0.006774206424572147,"210":-0.07680273307148286,"211":0.020777141530638255,"212":0.05528969113351401,"213":0.005062695877265885,"214":-0.06394122105789637,"215":0.07069332232670864,"216":-0.14405854335288937,"217":-0.234083627285546,"218":0.0991544045848271,"219":-0.21497202408598554,"220":-0.07025598711304643,"221":0.12562461518889445,"222":0.1690764252029186,"223":0.04283873812779923,"224":-0.09921896391937851,"225":0.04261555743854076,"226":-0.06792260793859121,"227":0.2275617273082989,"228":0.07885853972124811,"229":0.33995871713675574,"230":0.06460007789999589,"231":0.21561319249586675,"232":-0.031197836696169472,"233":0.14107887629870824,"234":0.17629786022306412,"235":0.2896399168589521,"236":0.17050281687138163,"237":0.11381292360502927,"238":0.020667945274309756,"239":0.24273862449437247,"240":0.2535952647829151,"241":-0.04090151012785463,"242":0.13150290579141477,"243":-0.12269323580161985,"244":0.09926500810123398,"245":0.32799071280556086,"246":0.17126242034030947,"247":-0.13433446126527276,"248":0.16121146448906296,"249":0.12531597144590118,"250":0.004583734337776515,"251":0.12068041745517734,"252":0.015702917407263497,"253":0.10816504892536544,"254":0.24375311993262216,"255":0.2975531726286399,"256":-0.06085441411062458,"257":0.07677976344199045,"258":0.09325221871674669,"259":0.26380069260009836,"260":0.1352051017546123,"261":0.25339813022771157,"262":0.11580580502475629,"263":0.0808440583606882,"264":-0.10142096783738608,"265":0.16938135262794665,"266":-0.01194745773150657,"267":-0.0818637742382845,"268":-0.06611690310134542,"269":-0.009916162724405327,"270":-0.10265293130436862,"271":0.40098040064110085,"272":-0.03158040875761157,"273":0.039959016183979665,"274":0.18297603999863954,"275":0.05685881554549302,"276":0.0616645433667679,"277":-0.1071992328365068,"278":-0.1379353377908039,"279":0.17403959525136678,"280":-0.03159841095412623,"281":-0.16358512021511223,"282":0.15104173850487432,"283":-0.023902043093304744,"284":0.07902662593131715,"285":0.20510103748835726,"286":0.05860648872291218,"287":0.1623113656902065,"288":0.07643951990587965,"289":-0.019768766739187503,"290":0.01595575366241384,"291":0.20285178145307356,"292":-0.004898672240546166,"293":0.11849704913626985,"294":0.013124471100809342,"295":0.1986241755027829,"296":-0.1258639618921676,"297":0.11004999505630571,"298":0.1048503120876463,"299":-0.19215306763986445,"300":-0.18327997471349253,"301":-0.029742444019803038,"302":0.009856140193761439,"303":-0.12514785641917736,"304":0.2454002672473065,"305":-0.010405913226418078,"306":0.11148948241957421,"307":-0.02645373709453707,"308":0.18893889857787566}},"9":{"bias":0.15179544665076222,"weights":{"0":0.18268871753501786,"1":0.10993053953863492,"2":-0.15088659121421766,"3":0.19114154561822044,"4":-0.1685899110558576,"5":0.050050143864465435,"6":0.15613900360685068,"7":-0.1304113673809184,"8":-0.1226555197835078,"9":0.19330393083045222,"10":-0.04093754990343218,"11":0.15396218636287484,"12":0.020947324063188364,"13":0.09702732666290237,"14":0.054610285203210984,"15":-0.10514114977144852,"16":0.0801960780893322,"17":0.17159141152561072,"18":0.06714138623473481,"19":0.0027798099125888954,"20":0.2092425170364885,"21":-0.11961013121399938,"22":-0.1832271268727126,"23":-0.027236745692960515,"24":0.016103975786848978,"25":0.0019397797514449705,"26":-0.1438658992880131,"27":0.05081140830361757,"28":0.1619613567564115,"29":0.15835557955717716,"30":-0.02687196849138491,"31":0.07418491773901104,"32":0.13991797160417485,"33":0.1870263693034081,"34":-0.14208276394773578,"35":-0.18814162617105895,"36":-0.10488218154072372,"37":-0.10163335755959298,"38":0.006429030752363066,"39":0.07623667928119787,"40":-0.10045394708180554,"41":0.030074909019896,"42":-0.0865658979205032,"43":0.044293763969915065,"44":-0.09797381111484554,"45":-0.1690674953615963,"46":0.1432596832814953,"47":-0.09796200685536996,"48":-0.12260974973610461,"49":-0.12331196169486003,"50":0.02139077500194391,"51":-0.12636210169424822,"52":-0.10558963131716362,"53":0.1493577861702408,"54":-0.059584902069262514,"55":0.072775408039348,"56":-0.053191232541400936,"57":0.14704621735523754,"58":0.0669926452091677,"59":-0.10504231851337649,"60":0.1494847153670827,"61":0.1780658047450115,"62":0.05604551053458411,"63":-0.15158792406616697,"64":0.06986733080222872,"65":0.1174399772013191,"66":0.18107922764118672,"67":0.03623776395870221,"68":-0.0013411663409187242,"69":-0.11682651832200436,"70":0.1454765071473787,"71":-0.11176532267664503,"72":-0.04709340868525509,"73":0.15762305000221638,"74":-0.1655971612464664,"75":-0.03900422351506271,"76":-0.10296513289165256,"77":0.1789176922980797,"78":-0.0027911239870891187,"79":0.15396381688799743,"80":0.1862675307240892,"81":0.011373109912618806,"82":-0.01951900883564275,"83":0.17183703088273233,"84":-0.16985238578327963,"85":0.15201893604121258,"86":0.019406823424266674,"87":0.1863398622225114,"88":-0.1885608202907278,"89":-0.17012098213186141,"90":0.18084500062350048,"91":-0.12278634400924947,"92":-0.10377399102818154,"93":-0.030976283703752782,"94":0.024949443816347488,"95":-0.01849736407373475,"96":-0.05943947762173413,"97":-0.06463104358694576,"98":0.13875380279767083,"99":0.05147614112119602,"100":0.1997960361463427,"101":0.15121240275406675,"102":-0.023943304248395147,"103":0.09111748062944902,"104":-0.022262046999103818,"105":0.005675582647163519,"106":-0.08667056577081239,"107":0.1986644032585142,"108":0.013863496557125333,"109":-0.17358628364483736,"110":0.05758209938590634,"111":0.12946109907632042,"112":0.001455789812736119,"113":-0.033544021511503146,"114":-0.09645386811035474,"115":-0.1662443117331368,"116":-0.11746054294827117,"117":-0.15415209191311238,"118":0.11366944226034396,"119":-0.06606558663499325,"120":0.08713254418179321,"121":-0.157759600676595,"122":0.12767473667133175,"123":-0.16170350901517389,"124":-0.0425183931245236,"125":-0.15966585529590713,"126":0.18774175550732825,"127":0.12076503040811958,"128":0.07042160008281663,"129":-0.1903273666978299,"130":-0.11122734362882382,"131":-0.11501881311048838,"132":0.17083362701707835,"133":-0.1063889870579213,"134":-0.021461405939060266,"135":-0.0418909004373246,"136":-0.16333492004267341,"137":-0.13023278143780254,"138":-0.047347799335169846,"139":0.1010732921962224,"140":-0.08335396608743473,"141":-0.12580162187191937,"142":-0.1443967347308988,"143":-0.005958825324377592,"144":-0.19726089760195803,"145":0.048060258367107075,"146":-0.07580610963058709,"147":-0.11524138859976553,"148":0.10418916858705138,"149":-0.062351175742777626,"150":0.15915191550392854,"151":0.03350977247093088,"152":0.09890241788035754,"153":0.1623335867451393,"154":-0.16103776299412614,"155":0.10119397565151106,"156":0.1559525615415803,"157":0.16762835265505377,"158":-0.13512355441466678,"159":0.03770507757730198,"160":-0.020222846019066206,"161":-0.07808527779190622,"162":-0.17962362343037858,"163":0.10011442037224774,"164":0.09420610993499724,"165":-0.15786028899339297,"166":-0.008165102329537741,"167":0.08433207373351716,"168":0.12313714290667524,"169":-0.1423232171830492,"170":0.2003105649310225,"171":0.06670012164323381,"172":-0.025112413412602504,"173":0.15318798637634068,"174":0.011948746194601711,"175":-0.09242858162913735,"176":0.12526748467845208,"177":0.029402101493113026,"178":0.13997033007348622,"179":0.1539114932178592,"180":0.10684969727105686,"181":0.16958989757250129,"182":-0.13094628688584137,"183":-0.02435551667635043,"184":-0.17308980800735557,"185":0.05878535525418859,"186":0.17134284730765276,"187":-0.1903398035593113,"188":-0.06462596705801285,"189":0.05795550183622923,"190":-0.04775585268684269,"191":-0.10981099583326025,"192":-0.016929198088608925,"193":0.03669539652285336,"194":0.02690375061128307,"195":-0.1653381807040751,"196":-0.06148267181875431,"197":0.1379011893528393,"198":0.028633166991946443,"199":0.034467349564245346,"200":-0.16070899173309722,"201":-0.12592279850196825,"202":0.0924991857693132,"203":0.11158827544391069,"204":0.01272163715206438,"205":-0.11540982499825336,"206":-0.0970494481366092,"207":-0.04637648172034834,"208":0.12622001875680192,"209":-0.0609965663171311,"210":-0.1839747268999822,"211":0.06733953140173705,"212":0.18182568720537065,"213":-0.19338564011674217,"214":0.08659353061554154,"215":-0.11688514681848919,"216":-0.011647126580445475,"217":0.17185004761466902,"218":-0.10573431165501852,"219":-0.05498247252791092,"220":-0.103549129609776,"221":0.014343359273790124,"222":-0.08170303248134554,"223":-0.006585785933250057,"224":-0.024909927236568635,"225":0.12829109801378172,"226":-0.09638318748737629,"227":0.11764000622797309,"228":0.020948889605948443,"229":0.02523445582526704,"230":-0.001827303964001767,"231":-0.0929578837193968,"232":-0.22556421708093316,"233":0.07423548119769147,"234":0.08926417211716166,"235":-0.11377382760670705,"236":0.042527938034428496,"237":-0.11367110003584045,"238":0.11597187408059755,"239":-0.06388103668987741,"240":0.17952503239513115,"241":-0.004236932120872136,"242":0.00600658781212919,"243":0.1701980177422249,"244":0.022684964493607577,"245":0.072831089893864,"246":0.07768117097022113,"247":0.0430531838235549,"248":0.15882020784861262,"249":-0.09057522285273609,"250":0.038032971816026793,"251":-0.15907339158716713,"252":0.20102574752248714,"253":-0.0029748732002828054,"254":-0.006057734411612861,"255":-0.07153912562659567,"256":0.028479880714833393,"257":-0.10686681158129495,"258":0.17672378313461476,"259":-0.04574700376307208,"260":0.11685290368327776,"261":-0.18429469097725265,"262":0.16475425808506797,"263":0.024628006818815246,"264":-0.03170343289167604,"265":-0.08436686947828508,"266":0.1536789622920376,"267":-0.16519097106374375,"268":0.01815613285752609,"269":0.027130610596277065,"270":-0.18615842348552605,"271":-0.17219225515148326,"272":-0.1313791035911582,"273":-0.15255542572123904,"274":0.18647695911845447,"275":-0.14547029062926073,"276":0.08734202758887023,"277":0.14556172686061533,"278":0.19289591899043496,"279":0.03071975745801486,"280":0.0126977638699921,"281":0.1828887101448255,"282":-0.06809591017714822,"283":-0.057191261495445435,"284":-0.18079863831078985,"285":0.07129873490526151,"286":-0.015913501971002633,"287":-0.143040053322781,"288":0.027573813126004352,"289":0.005802366008850339,"290":0.07165869987994065,"291":-0.1606323193335835,"292":-0.18615037745912463,"293":0.029425202522859586,"294":-0.08452338222190169,"295":-0.17279085966325142,"296":0.15845486196507608,"297":-0.011181683240395798,"298":0.022412037225646275,"299":0.01593613313353827,"300":-0.07178000275043514,"301":0.1774618451366437,"302":0.06693989121319427,"303":-0.1426582063577868,"304":-0.04696938960178322,"305":0.1541731480067348,"306":0.09624819196263021,"307":-0.025527724905475193,"308":0.0673448115245611}},"10":{"bias":-0.03960264899700703,"weights":{"0":-0.08149194108033785,"1":-0.031171630089164494,"2":-0.14988452121665743,"3":0.08349222023374923,"4":-0.07864287479008561,"5":-0.048962515403092044,"6":-0.13429643133173083,"7":-0.14574673651643283,"8":-0.11610743566120256,"9":0.07416179650170988,"10":0.0695741587473209,"11":0.16435863596726327,"12":0.030251927023823396,"13":0.13137307355166564,"14":-0.004050907052114537,"15":-0.14359824307958888,"16":-0.07753125950470165,"17":0.032636206738781766,"18":-0.17890914020639784,"19":0.023631486600496042,"20":-0.09016838690916375,"21":0.12691416873318995,"22":0.06060391417020692,"23":-0.08681337029242302,"24":0.12545577776334088,"25":0.16300957541880315,"26":0.13273891733917403,"27":-0.05697166659818858,"28":0.13761570542615031,"29":0.167320432491987,"30":0.10546014620464883,"31":0.17448716280534815,"32":-0.15206039831500734,"33":0.15303834545998324,"34":-0.14779503252918838,"35":0.15636595474203208,"36":-0.19744350862936777,"37":-0.1451974315001539,"38":-0.1110681962241768,"39":0.1353033012558057,"40":0.08443986151616008,"41":-0.06859347452292673,"42":0.0959220567139648,"43":-0.029294762810424865,"44":0.037169853945317195,"45":0.07324723124212777,"46":-0.09063654800204883,"47":-0.08447106193737675,"48":-0.14125580775627442,"49":0.05154220457271811,"50":-0.12072472236264407,"51":-0.0171069737964581,"52":0.09539931513571938,"53":0.042837229240194015,"54":0.08135404409904458,"55":0.02009367381195619,"56":-0.019391885550082092,"57":0.05839526014169764,"58":-0.05151265873812005,"59":0.10311875735557553,"60":-0.11616912895828922,"61":0.14538557864734544,"62":-0.13132130550147836,"63":0.020945661613116166,"64":0.10538581443850306,"65":-0.14820866013188466,"66":-0.0844071680471522,"67":0.03574991914243713,"68":0.1297365058500973,"69":-0.06968661772963401,"70":0.012883191723367724,"71":-0.15253713135806898,"72":-0.07897336880148342,"73":0.06237608676892959,"74":-0.18097332218959133,"75":-0.12124452736893251,"76":-0.09250706307435148,"77":-0.1268947352291201,"78":-0.06640964365620013,"79":0.040002237041161216,"80":0.07425321078442597,"81":0.08398710155179331,"82":0.08767129979734227,"83":0.1822039284668738,"84":-0.12419234028389034,"85":-0.06914186813857197,"86":-0.1677359403429289,"87":-0.15857805285708637,"88":0.15506141160849513,"89":0.1638949162231122,"90":-0.005907340555041727,"91":-0.16108103268432694,"92":-0.06503010351050176,"93":0.028204455252386684,"94":-0.04353223563749249,"95":-0.13744628874579004,"96":-0.035412997003403515,"97":0.10082528761331268,"98":0.17244942332854526,"99":-0.17795560711775327,"100":0.19786640112229867,"101":-0.09407323584479957,"102":0.17957257665338944,"103":0.19098639162334674,"104":0.0709977107505609,"105":0.18879656358257207,"106":0.10115255092362449,"107":0.1434240991530456,"108":-0.10012846117874342,"109":-0.1062092837349774,"110":0.024221551849011477,"111":0.12128242218807839,"112":-0.11322116778291651,"113":-0.1682388385167182,"114":-0.2142914855460052,"115":0.08874157629660362,"116":0.10711681154338921,"117":0.24104625150186196,"118":0.12772382874581495,"119":0.10896717308026269,"120":0.18516665999006,"121":-0.07589726008054988,"122":-0.1631223510395451,"123":0.17816733294384915,"124":-0.09311706245856888,"125":0.15042527950617876,"126":-0.08343551198376964,"127":-0.20470060490174996,"128":-0.06630138318934804,"129":0.1396742430286829,"130":0.14860391367182482,"131":-0.16184177402700334,"132":0.23683225764976712,"133":-0.03377745031413311,"134":-0.10043460076757335,"135":0.04319276105797928,"136":-0.10043419619930352,"137":-0.16103221546792926,"138":0.15451158115920885,"139":0.19333403128010568,"140":-0.0638032110134107,"141":0.07889594542708718,"142":0.1878843690088788,"143":-0.1339119669077586,"144":0.010520106390814542,"145":0.049414822123630256,"146":-0.08743520098248884,"147":-0.07273589302071984,"148":-0.017891065196055593,"149":0.043211919463713146,"150":0.13411044564822705,"151":-0.12301138890192638,"152":-0.045878575631346834,"153":-0.09575005531130039,"154":-0.08844853441099758,"155":-0.17685814713997017,"156":-0.1390505228783924,"157":0.05306058909092853,"158":0.07941403969047468,"159":0.1803759279491454,"160":0.05419437411591079,"161":-0.19753079486029984,"162":-0.09013290184981575,"163":0.09322335841761792,"164":-0.08600648592955376,"165":0.17220099403921807,"166":0.15693801256245135,"167":0.033316342431835934,"168":-0.1476403898950394,"169":-0.026441579966863585,"170":0.03102086363004516,"171":0.1468628450878509,"172":-0.09197659918212904,"173":-0.09444981357366383,"174":0.06432572313447049,"175":0.14148848609314207,"176":0.19060056816298987,"177":-0.12913016020219753,"178":0.030760465365036155,"179":-0.05971412504704059,"180":0.009128602896434464,"181":-0.07844555881256346,"182":0.10525984686049807,"183":-0.055724149465711324,"184":-0.1548410224679719,"185":0.13332352431284605,"186":-0.17257117148706227,"187":-0.03361572829778697,"188":0.08705432737315438,"189":-0.16223909344451093,"190":0.03667637426688345,"191":0.14758097473123402,"192":-0.08667924756774383,"193":0.04904721159372313,"194":-0.01287706097117115,"195":-0.16719920257674153,"196":0.02839762704677419,"197":0.15132843545963484,"198":-0.1473063085127132,"199":0.11833653168906777,"200":-0.18275277603620738,"201":0.07893244800539141,"202":0.1399247657845604,"203":0.09217024636059744,"204":-0.15530382101283413,"205":0.15632949362070284,"206":-0.01192708847575041,"207":0.10944033642472628,"208":-0.07087155468556673,"209":0.003664196205764026,"210":0.02121376356136164,"211":-0.019371463552621756,"212":0.1590431070582397,"213":-0.19046833307406655,"214":0.027561467688013944,"215":-0.08678691738764897,"216":-0.17598644530640997,"217":0.03962835465731883,"218":0.1467672526143814,"219":0.10609972695353467,"220":0.19544376225347984,"221":-0.06128285437395309,"222":0.06341841456991532,"223":-0.06321667129271555,"224":0.16685433447046819,"225":-0.06470682215941043,"226":-0.016097911985030463,"227":-0.1023275611824644,"228":0.051366888167525576,"229":-0.12124904773006509,"230":-0.10485115058329851,"231":-0.004445327473846046,"232":-0.14128401543999158,"233":-0.08673044437477526,"234":0.031043280972976955,"235":0.04821115797444159,"236":-0.11730597677241263,"237":-0.04052645608772802,"238":-0.10920294512892186,"239":0.08167644255522635,"240":-0.04122708891524503,"241":-0.15672274175838874,"242":-0.07475838185650524,"243":0.1364164170306054,"244":-0.2189198803622179,"245":0.00224403447688608,"246":0.019960523379711846,"247":0.00033572792298259234,"248":0.17350921857746424,"249":-0.1655432059866342,"250":-0.10382128480982006,"251":-0.0260175355728977,"252":-0.1120975970713337,"253":-0.17535964815450203,"254":-0.07314196511405055,"255":-0.05404100737201271,"256":-0.08819063777485421,"257":0.13547046689197062,"258":0.10205861311154202,"259":-0.1254540904184985,"260":-0.1708862071094038,"261":-0.16040527073593155,"262":-0.07067861602365755,"263":0.18055171205429443,"264":-0.16419839493313268,"265":0.13349297401696225,"266":0.10899747330094961,"267":-0.0011439176940455486,"268":-0.15542254323907945,"269":-0.17439208212124835,"270":0.10511512583588,"271":-0.22373884482263615,"272":-0.09913786988204104,"273":-0.19076931121546412,"274":-0.008088323196833192,"275":0.020915510821872246,"276":0.05011899084946074,"277":-0.12935913887581785,"278":-0.12092480324039989,"279":-0.008209756574845534,"280":0.17012843277793208,"281":0.18971082816360044,"282":-0.10367787858670191,"283":0.0875663960860725,"284":-0.06479620578577211,"285":0.1628394798628551,"286":0.028547437929961384,"287":0.16343912998943924,"288":0.12367311769951886,"289":-0.03324960040579257,"290":0.09440737074084973,"291":-0.11700677261022047,"292":0.005707638998412142,"293":0.1309323543162665,"294":-0.009994203431575109,"295":-0.17703091044580532,"296":0.07175465310276412,"297":0.1392009902635446,"298":0.10289811868074843,"299":0.08988107285164834,"300":-0.1747777971961146,"301":-0.048045547183076354,"302":-0.19889375686952906,"303":-0.19542318375690199,"304":0.00626243055322143,"305":0.1362764705927061,"306":-0.005079302611214624,"307":0.06041061705128255,"308":-0.10614701346948129}},"11":{"bias":-0.09767038024654101,"weights":{"0":0.16385215708033887,"1":0.0649261739730329,"2":-0.03167228670303009,"3":-0.027414803597834665,"4":-0.003953864873341028,"5":-0.09920383420898513,"6":-0.0070563602806051175,"7":0.00842315390606767,"8":0.16328733887822452,"9":0.1682855172075889,"10":-0.1583907102669523,"11":-0.1517488679570502,"12":-0.13535051059828615,"13":0.13765431244304335,"14":-0.11214680228734404,"15":-0.14232683425109485,"16":-0.10700209853661379,"17":0.14998471839422026,"18":-0.12665126883380606,"19":-0.18290993742236566,"20":0.1661422556696518,"21":-0.10960619656171594,"22":-0.08351026427962395,"23":-0.1503313480846417,"24":-0.2018477486811796,"25":0.03953309245422079,"26":-0.14018827830034747,"27":-0.011765377070731439,"28":0.1276863744746436,"29":0.06570855225313667,"30":0.0072284086048373395,"31":0.1588749826066247,"32":0.1018774633483693,"33":-0.06565392951654789,"34":0.037370968392805355,"35":0.1811469591388183,"36":0.005164437518870563,"37":-0.07734789405656024,"38":-0.03767892973496698,"39":0.11732056195236336,"40":0.017371667349973335,"41":-0.08848221768812074,"42":-0.007300330259744076,"43":-0.08854997896940901,"44":0.034276091002807436,"45":0.1897165859021781,"46":-0.0965016855910391,"47":0.1469209553139113,"48":0.08325791320871713,"49":-0.15861682383295372,"50":0.14361453639202226,"51":0.045139395267961825,"52":0.11921744463285684,"53":-0.11002283801069011,"54":-0.08733275350350402,"55":0.12601679801502977,"56":-0.035475866694861025,"57":0.13397367488254563,"58":-0.06389046720925931,"59":-0.12086624951427158,"60":0.02422497175846508,"61":0.1402764283744112,"62":0.06592460783033617,"63":0.05400539021653345,"64":-0.09899992942993877,"65":-0.0933689853683256,"66":0.10236140283520191,"67":0.1225558333874228,"68":-0.10211536322403701,"69":0.010096660260803737,"70":-0.12679226714325992,"71":0.05431336262464398,"72":0.0784795836121406,"73":-0.09712007613912581,"74":-0.18466148751510483,"75":0.08144143964954503,"76":0.08757960202078476,"77":-0.15948401653477617,"78":0.020459685151853993,"79":0.09680708496271019,"80":-0.13010967275024113,"81":-0.04389323073425543,"82":0.08842339123289424,"83":-0.019496732540255503,"84":-0.05061896194995948,"85":-0.1506591156327287,"86":-0.11986576177598436,"87":0.06577129281683093,"88":0.059002628557438465,"89":-0.0896118081289392,"90":0.05667136345523568,"91":0.08656235607029768,"92":0.1261757056351798,"93":0.04648181917901541,"94":-0.122731761019123,"95":-0.13478261034068056,"96":0.05764664368118429,"97":0.07538520543590174,"98":0.1659069151535257,"99":-0.07025347527613704,"100":0.013982590144348906,"101":0.013364389771987117,"102":0.16084653801167292,"103":-0.18891902393475665,"104":-0.1576876489414654,"105":0.047389570013966174,"106":0.08152985742579996,"107":0.06264092702802554,"108":-0.18340754229565356,"109":0.12080116433539592,"110":-0.11791162040787574,"111":0.18818090131690932,"112":-0.08788597361321547,"113":0.15241127272181407,"114":-0.08553105392355294,"115":-0.14918262665528514,"116":0.09299084173332996,"117":0.12396906882127114,"118":-0.15815960251089936,"119":0.1921840645264209,"120":0.08767044347428406,"121":0.18008336201778166,"122":0.08996770211248788,"123":0.0787087448134634,"124":0.07199487947643608,"125":-0.11879861674767268,"126":-0.04126057688076353,"127":-0.07851769336796696,"128":0.06858789420639855,"129":0.08585594807815856,"130":-0.1380441246700362,"131":-0.09353091910478076,"132":-0.1252304222150776,"133":-0.1181433096486555,"134":0.1660803358764667,"135":0.030380901630399956,"136":-0.027368891063088832,"137":0.00390691409117968,"138":-0.10228090131330196,"139":0.024591308741508437,"140":0.12946607999625562,"141":0.12831485549074806,"142":-0.16234966084878524,"143":-0.04516875620721208,"144":0.002694877213182075,"145":-0.15100420303376047,"146":0.09442276643544881,"147":0.06618623168884556,"148":0.1956273336576031,"149":-0.1468143283709538,"150":0.0921385775509774,"151":0.14069828764676715,"152":0.13013160082722022,"153":-0.12536699430930756,"154":-0.13129317311294453,"155":-0.017424391188354715,"156":-0.14219383698699095,"157":-0.1486876738452542,"158":0.1518831727411227,"159":-0.11943741641417761,"160":0.012062743840847745,"161":-0.12547148432709201,"162":0.19619808566836958,"163":0.20252086753047707,"164":-0.02674829197932548,"165":0.022020325932706565,"166":0.026714690212265656,"167":-0.024280936866297693,"168":0.09650987240827383,"169":0.09467238908701181,"170":0.04507962191736698,"171":0.19732420278186244,"172":-0.19786466550236367,"173":-0.15696195969691193,"174":-0.09965922401466906,"175":0.09710416283680207,"176":0.02173898823102547,"177":0.1290662500935094,"178":0.03393963761751885,"179":-0.041656242135666946,"180":-0.1092070383638764,"181":-0.005648791795037541,"182":0.04140855810498853,"183":0.07504229193514178,"184":0.07038828809134706,"185":0.08907769246951358,"186":-0.19356290131444107,"187":-0.12871628929417228,"188":0.024366030119157413,"189":0.014116848719897816,"190":-0.01971141033565768,"191":0.12325479522191524,"192":0.020449929900084086,"193":-0.11513960748018082,"194":0.08019924507274816,"195":-0.17249547892486158,"196":-0.08455407982947834,"197":0.06000817911232807,"198":0.04020035367363188,"199":0.11024370473687245,"200":0.0961468734567995,"201":-0.05972825173731329,"202":0.07028947233870968,"203":-0.14317519424358,"204":-0.02432241150531455,"205":0.03678604086802001,"206":-0.14275299070604083,"207":0.08122771012533121,"208":0.14869257854843893,"209":-0.19664552235845906,"210":-0.17544264231717185,"211":-0.1648924115062515,"212":-0.05650811401700325,"213":0.004824298818601559,"214":0.19361606602061862,"215":0.00013537332140392097,"216":-0.1750801324005949,"217":-0.049735337300628686,"218":0.03936278064259823,"219":0.034008920323555444,"220":-0.01947839115743502,"221":-0.1674642667151741,"222":0.08590544088207293,"223":0.04296853907808338,"224":0.06331142889180626,"225":-0.08445294645630672,"226":-0.1629061684103591,"227":-0.19319914059971516,"228":-0.04310131944715528,"229":-0.14349346848772712,"230":0.12724833785982623,"231":-0.05174537179541981,"232":0.03770620446813076,"233":0.0011898793932382497,"234":-0.07887168408882411,"235":-0.05367828861945892,"236":-0.1414974979717075,"237":0.09270316962872804,"238":0.024579132396984008,"239":0.025426474562055195,"240":0.012431173078253296,"241":0.11982136160586979,"242":-0.05837625620393772,"243":-0.045397831925478374,"244":0.0028026124308567855,"245":0.0655013407777778,"246":-0.15256018955712072,"247":0.10799245916157284,"248":0.029891801752750673,"249":-0.13249413683635003,"250":0.08555338569816207,"251":0.0010424326371059058,"252":-0.1836716690904499,"253":0.1785647184760544,"254":0.07480351349952548,"255":-0.1618584942200157,"256":-0.1742682246383962,"257":-0.03383452237964392,"258":-0.18297825655891972,"259":0.026587608099432218,"260":-0.10818221134369255,"261":-0.00168214958382156,"262":0.16638065784292397,"263":0.003640848609494437,"264":0.1967887699048628,"265":-0.162317195779467,"266":0.13419808907325642,"267":0.0014308643423825752,"268":-0.08964012621528201,"269":0.0019859625956205156,"270":0.09106732591778217,"271":-0.07783513746226954,"272":0.038113420954210546,"273":-0.11480442093284576,"274":0.14811283139826328,"275":0.11188352214016631,"276":-0.09875051746287139,"277":-0.07258658272196175,"278":0.11149227414504105,"279":0.07274861479183538,"280":0.04403374161124218,"281":-0.189722970106491,"282":0.11241613040970239,"283":-0.14384004361881028,"284":-0.18085994954535797,"285":-0.08567929475936667,"286":0.06350350603846507,"287":0.013831236443584072,"288":0.09725456262732664,"289":-0.19194176068217833,"290":-0.11648538938816295,"291":-0.016588798231955755,"292":0.14715784804419388,"293":0.013856780326189588,"294":0.04412279749249242,"295":0.09599479474829932,"296":0.04966719980828543,"297":0.05051538601971028,"298":-0.0071070354320989975,"299":-0.14126380326244317,"300":-0.14205126213624591,"301":-0.017301836077019645,"302":-0.14141707658418395,"303":0.14306352780386555,